tree
version=v3
num_class=1
num_tree_per_iteration=1
label_index=0
max_feature_idx=5
objective=regression
feature_names=Country EdLevel DevType OrgSize Age YearsCodePro
feature_infos=-1:19:6:18:3:7:5:2:10:0:15:13:16:9:17:4:11:8:14:1 -1:0:1:2:3 -1:8:4:12:7:5:9:11:6:2:3:10:1:13:0:14 -1:5:3:2:0:7:1:4:6:8 -1:1:2:0:3:4:5:6 [0:30]
tree_sizes=2700 2746 2725 2718 2735 2729 2725 2696 2696 2715 2709 2677 2719 2714 2677 2701 2684 2714 2677 2683 2690 2725 2680 2679 2665 2670 2687 2695 2678 2662 2670 2655 2665 2658 2666 2659 2677 2677 2662 2681 2659 2652 2685 2650 2630 2659 2454 2643 2667 2672 2431 2674 2695 2590 2678 2417 2655 2418 2682 2682 2677 2657 2576 2643 2706 2649 2421 2583 2686 2663 2412 2695 2674 2669 2696 2653 2592 2583 2699 2583 2343 2337 2349 2125 2495 2584 2680 2662 2665 2104 2688 2667 2365 2680 2262 2445 2579 2344 2114 2570

Tree=0
num_leaves=31
num_cat=16
split_feature=0 0 5 5 5 2 0 5 0 5 2 0 0 2 0 3 3 2 5 0 5 5 5 1 1 5 5 5 5 5
split_gain=2.83849e+13 5.47264e+12 3.089e+12 1.87644e+12 1.18229e+12 5.80146e+11 5.14393e+11 4.92266e+11 3.96818e+11 2.9009e+11 1.95454e+11 1.75051e+11 1.746e+11 1.49043e+11 1.47345e+11 1.45808e+11 1.33142e+11 1.26243e+11 1.14516e+11 1.01485e+11 8.93619e+10 6.40791e+10 4.55948e+10 4.50705e+10 4.21671e+10 3.5805e+10 2.99644e+10 1.59571e+10 1.24262e+10 1.11808e+10
threshold=0 1 5.5000000000000009 6.5000000000000009 4.5000000000000009 2 3 2.5000000000000004 4 3.5000000000000004 5 6 7 8 9 10 11 12 8.5000000000000018 13 9.5000000000000018 1.5000000000000002 4.5000000000000009 14 15 8.5000000000000018 2.5000000000000004 9.5000000000000018 3.5000000000000004 9.5000000000000018
decision_type=1 1 2 2 2 1 1 2 1 2 1 1 1 1 1 9 9 1 2 1 2 2 2 1 1 2 2 2 2 2
left_child=2 3 7 9 12 14 20 16 10 21 -5 15 28 -10 25 -7 -1 24 -8 -11 -6 -2 -19 -18 -9 -4 -14 -13 -3 -16
right_child=1 4 5 8 6 11 18 17 13 19 -12 27 26 -15 29 -17 23 22 -20 -21 -22 -23 -24 -25 -26 -27 -28 -29 -30 -31
leaf_value=95850.270257460099 92706.535796478202 90934.54958983227 98502.392901632949 96586.066502299727 92072.811007995449 97890.01275326348 93124.714908483264 96134.098035645307 95685.263634953881 94429.454508744064 95335.92163122879 94931.580869489393 91913.04260544994 94487.291084205426 96524.067589434897 97106.276968797625 93952.268506274195 96598.463501883904 93787.970975902761 93696.105242842881 92768.375447410683 93372.640953626935 97347.985285211034 94880.111184693742 95196.115808547038 99005.017978066622 92407.876252638671 96064.480666948992 91400.219862523372 97334.797910266818
leaf_weight=329 523 734 485 347 903 2456 1040 615 287 1005 2741 49 621 2160 65 1229 168 532 1739 985 945 1166 328 522 172 1315 603 85 178 123
leaf_count=329 523 734 485 347 903 2456 1040 615 287 1005 2741 49 621 2160 65 1229 168 532 1739 985 945 1166 328 522 172 1315 603 85 178 123
internal_value=94970.3 93729.9 97308.1 94524 92650.2 97957.8 93095.9 95901.9 95105.2 93648.3 95481.2 97565.6 91673.8 94630.1 98679.3 97635.1 95038.1 96436.3 93544.9 94057.3 92442.2 93166.4 96862.3 94642.9 95934.5 98848 92179.6 95603 91068.2 96949.2
internal_weight=0 15977 8473 9214 6763 5807 4627 2666 5535 3679 3088 3819 2136 2447 1988 3685 1019 1647 2779 1990 1848 1689 860 690 787 1800 1224 134 912 188
internal_count=24450 15977 8473 9214 6763 5807 4627 2666 5535 3679 3088 3819 2136 2447 1988 3685 1019 1647 2779 1990 1848 1689 860 690 787 1800 1224 134 912 188
cat_boundaries=0 1 2 3 4 5 6 7 8 9 10 11 12 13 14 15 16
cat_threshold=655616 265307 19998 644 262169 18438 655360 132 26630 524288 205 5 353 262169 4 3
is_linear=0
shrinkage=1


Tree=1
num_leaves=31
num_cat=17
split_feature=0 0 5 5 5 2 5 0 0 0 2 5 5 2 0 3 2 0 0 5 2 0 0 5 1 5 5 5 5 5
split_gain=2.56227e+13 4.93917e+12 2.78844e+12 1.70063e+12 1.07225e+12 5.23338e+11 4.44628e+11 4.13645e+11 3.8816e+11 2.6275e+11 2.05548e+11 1.7149e+11 1.67719e+11 1.42747e+11 1.27508e+11 1.20599e+11 1.17066e+11 7.82171e+10 7.29618e+10 6.60478e+10 6.14479e+10 5.78409e+10 5.30351e+10 4.80574e+10 4.09336e+10 3.1091e+10 2.9774e+10 2.79457e+10 2.71321e+10 1.38374e+10
threshold=0 1 5.5000000000000009 5.5000000000000009 5.5000000000000009 2 2.5000000000000004 3 4 5 6 2.5000000000000004 10.500000000000002 7 8 9 10 11 12 3.5000000000000004 13 14 15 9.5000000000000018 16 3.5000000000000004 8.5000000000000018 4.5000000000000009 1.5000000000000002 9.5000000000000018
decision_type=1 1 2 2 2 1 2 1 1 1 1 2 2 1 1 9 1 1 1 2 1 1 1 2 1 2 2 2 2 2
left_child=2 3 6 11 9 14 15 10 23 25 -5 28 17 -9 26 -1 22 -7 -13 -11 -10 -14 -8 -6 -17 -3 -4 -18 -2 -16
right_child=1 4 5 7 8 12 16 13 20 19 -12 18 21 -15 29 24 27 -19 -20 -21 -22 -23 -24 -25 -26 -27 -28 -29 -30 -31
leaf_value=837.23393097486462 -2150.6116718970566 -3833.9984850309202 3401.6727157989103 22.336010362314838 -2652.9881896591187 2207.5449576179267 1193.7420139049289 -743.22810718268784 -273.85315129743304 -2780.9724457256862 800.23906206141885 -782.20721581444889 2852.4579712004033 -23.666363378869619 1368.8867757828511 -970.0253047643082 1813.5170727999707 771.84080238658078 -1431.5372587359591 -2135.7310263774343 -1343.6220564399016 1610.3788107198561 -32.801510387918221 -2091.8639893046384 -85.799794810158872 -3276.3414547560401 3872.7121781205155 2597.3615091787219 -1653.776332932968 2301.9241759183114
leaf_weight=329 523 734 462 1662 640 1493 1047 1444 165 942 1740 1000 2110 1323 61 168 318 141 943 685 2273 201 105 945 522 379 1225 177 579 114
leaf_count=329 523 734 462 1662 640 1493 1047 1444 165 942 1740 1000 2110 1323 61 168 318 141 943 685 2273 201 105 945 522 379 1225 177 579 114
internal_value=0 -1178.44 2221.27 -424.006 -2204.15 2838.48 885.205 52.7741 -1687.83 -2970.27 421.385 -1391.33 2483.31 -400.504 3558.53 64.2908 1393.11 2101.89 -1108.74 -2493.98 -1272.64 2763.74 1082.63 -2303.9 -311.871 -3611.65 3721.65 2052.34 -1889.57 1869.85
internal_weight=0 15977 8473 9214 6763 5807 2666 6169 4023 2740 3402 3045 3945 2767 1862 1019 1647 1634 1943 1627 2438 2311 1152 1585 690 1113 1687 495 1102 175
internal_count=24450 15977 8473 9214 6763 5807 2666 6169 4023 2740 3402 3045 3945 2767 1862 1019 1647 1634 1943 1627 2438 2311 1152 1585 690 1113 1687 495 1102 175
cat_boundaries=0 1 2 3 4 5 6 7 8 9 10 11 12 13 14 15 16 17
cat_threshold=655616 265307 19990 262169 644 132 481 489 524288 5 4585 524288 262169 18434 524288 524288 4
is_linear=0
shrinkage=0.05


Tree=2
num_leaves=31
num_cat=17
split_feature=0 0 5 5 5 2 5 0 5 2 3 0 5 0 3 2 0 3 5 5 5 3 5 5 1 1 0 5 5 2
split_gain=2.31333e+13 4.45762e+12 2.51783e+12 1.5642e+12 9.67386e+11 4.73547e+11 4.01569e+11 3.50059e+11 3.08975e+11 2.98504e+11 2.59724e+11 2.37132e+11 1.48568e+11 1.19728e+11 1.09238e+11 1.06583e+11 1.04407e+11 7.21382e+10 6.05929e+10 5.96082e+10 5.09158e+10 4.93125e+10 4.33718e+10 3.89673e+10 3.79688e+10 3.71763e+10 3.70452e+10 2.97913e+10 2.80596e+10 1.05541e+10
threshold=0 1 5.5000000000000009 7.5000000000000009 5.5000000000000009 2 2.5000000000000004 3 3.5000000000000004 4 5 6 9.5000000000000018 7 8 9 10 11 10.500000000000002 3.5000000000000004 1.5000000000000002 12 9.5000000000000018 4.5000000000000009 13 14 15 7.5000000000000009 3.5000000000000004 16
decision_type=1 1 2 2 2 1 2 1 2 1 9 1 2 1 9 1 1 9 2 2 2 9 2 2 1 1 1 2 2 1
left_child=2 3 6 8 11 13 14 22 20 26 -11 28 21 27 29 24 -10 -14 -9 -13 -2 -7 -6 -17 -8 -16 -5 -4 -3 -1
right_child=1 4 5 9 7 12 15 18 16 10 -12 19 17 -15 25 23 -18 -19 -20 -21 -22 -23 -24 -25 -26 -27 -28 -29 -30 -31
leaf_value=1055.9301711736941 -2043.0811461935536 -3642.2988167713384 3070.3577621009704 582.60944924490798 -2520.338721613884 853.60357732599425 1052.2850484704591 -1483.8073294615831 -433.99478504983693 -249.46776771854408 543.54181341649826 -2641.9238608892811 1709.3197068878494 1788.3678931033974 -924.2488333455633 1470.3536356488567 -1084.8122881235565 2684.9916991026062 -983.75346272089723 -2028.9444770843618 -1449.3209434437304 2017.7886551714655 -1987.2707877256505 2163.262942657238 169.48483045808564 -81.59047094825516 1519.0759453457126 3612.5835913175247 -3112.5243067920055 376.82790512611132
leaf_weight=194 523 734 305 200 640 155 615 1124 1292 2706 1656 942 372 188 168 532 1262 2230 1314 685 1166 1062 945 328 172 522 409 1495 379 135
leaf_count=194 523 734 305 200 640 155 615 1124 1292 2706 1656 942 372 188 168 532 1262 2230 1314 685 1166 1062 945 328 172 522 409 1495 379 135
internal_value=0 -1119.64 2110.7 -402.922 -2094.06 2697.2 841.122 -1603.64 -1108.5 198.517 52.1469 -2821.76 2342.98 3349.03 60.969 1323.8 -761.528 2562.39 -1209.33 -2369.28 -1633.18 1893.11 -2188.71 1714.69 863.895 -297.032 1225.91 3501.26 -3431.07 796.607
internal_weight=0 15977 8473 9214 6763 5807 2666 4023 4243 4971 4362 2740 3819 1988 1019 1647 2554 2602 2438 1627 1689 1217 1585 860 787 690 609 1800 1113 329
internal_count=24450 15977 8473 9214 6763 5807 2666 4023 4243 4971 4362 2740 3819 1988 1019 1647 2554 2602 2438 1627 1689 1217 1585 860 787 690 609 1800 1113 329
cat_boundaries=0 1 2 3 4 5 6 7 8 9 10 11 12 13 14 15 16 17
cat_threshold=655616 265307 19998 644 19462 314 132 524288 5 353 262169 274 274 3 4 2114 402
is_linear=0
shrinkage=0.05


Tree=3
num_leaves=31
num_cat=17
split_feature=0 0 5 5 5 2 0 0 0 2 5 3 5 2 5 5 5 1 0 5 3 2 5 5 2 1 5 2 5 3
split_gain=2.09037e+13 4.24535e+12 2.23345e+12 1.48351e+12 8.76598e+11 5.32788e+11 4.08249e+11 2.78632e+11 2.58055e+11 2.11693e+11 2.08984e+11 2.04643e+11 1.54007e+11 1.27315e+11 9.59095e+10 7.75479e+10 7.73473e+10 7.46902e+10 7.17247e+10 6.9794e+10 6.15563e+10 5.44428e+10 4.34408e+10 2.89844e+10 2.3e+10 2.25763e+10 2.03969e+10 1.73465e+10 1.62787e+10 1.4513e+10
threshold=0 1 4.5000000000000009 5.5000000000000009 6.5000000000000009 2 3 4 5 6 9.5000000000000018 7 2.5000000000000004 8 2.5000000000000004 3.5000000000000004 2.5000000000000004 9 10 8.5000000000000018 11 12 3.5000000000000004 12.500000000000002 13 14 1.5000000000000002 15 18.500000000000004 16
decision_type=1 1 2 2 2 1 1 1 1 1 2 9 2 1 2 2 2 1 1 2 9 1 2 2 1 1 2 1 2 9
left_child=2 3 11 12 8 10 9 23 22 -5 20 16 26 -8 25 -10 24 -12 -14 -7 -4 -9 -3 -6 -1 -13 -2 -18 -21 -16
right_child=1 4 5 6 7 19 13 21 15 -11 17 14 18 -15 29 -17 27 -19 -20 28 -22 -23 -24 -25 -26 -27 -28 -29 -30 -31
leaf_value=1333.8896894575239 -1931.5898275535201 -3460.1836627596408 1177.762559247017 35.808650979265437 -2226.8651925231256 2806.3501471600066 668.31435298635006 -148.52896571783793 -2509.8276452455302 798.44119043345188 2659.7059572339776 -776.73717162894002 -675.327773396765 -482.99625611454786 788.02008027806539 -1870.1108150262023 2419.4672117078626 1855.8283103966567 -1301.7234378818703 3289.2574690227066 1962.5731675265317 -1163.2079698831667 -2869.0430790775563 -1762.0754770255551 422.51279052734372 -77.702047174627126 -1506.8876993559516 1341.3018937253535 3642.2700711857537 145.72247903611924
leaf_weight=101 537 734 502 1766 813 710 258 158 942 1883 1819 149 1066 2509 416 953 101 634 943 938 1055 2053 539 571 285 452 597 331 501 134
leaf_count=101 537 734 502 1766 813 710 258 158 942 1883 1819 149 1066 2509 416 953 101 634 943 938 1055 2053 539 571 285 452 597 331 501 134
internal_value=0 -1031.13 2070.71 -351.822 -1989.35 2541.89 83.7728 -1457.92 -2598.69 430.458 2177.34 607.379 -1242.15 -373.626 169.923 -2176.63 1206.1 2470.34 -979.191 3197.13 1729.71 -1091.69 -3184.87 -2020.51 706.485 -265.224 -1708 1680.43 3412.16 648.51
internal_weight=0 16322 8128 9559 6763 6159 6416 3595 3168 3649 4010 1969 3143 2767 1151 1895 818 2453 2009 2149 1557 2211 1273 1384 386 601 1134 432 1439 550
internal_count=24450 16322 8128 9559 6763 6159 6416 3595 3168 3649 4010 1969 3143 2767 1151 1895 818 2453 2009 2149 1557 2211 1273 1384 386 601 1134 432 1439 550
cat_boundaries=0 1 2 3 4 5 6 7 8 9 10 11 12 13 14 15 16 17
cat_threshold=655360 265563 4577 262425 644 132 481 69 26628 3 262425 306 18434 146 4 8208 168
is_linear=0
shrinkage=0.05


Tree=4
num_leaves=31
num_cat=16
split_feature=0 0 5 5 5 2 0 5 0 5 0 2 2 0 5 3 3 0 3 5 5 2 5 1 3 5 5 5 5 5
split_gain=1.88775e+13 3.62744e+12 2.06604e+12 1.30428e+12 7.94724e+11 3.8919e+11 3.4339e+11 3.24602e+11 2.5814e+11 2.4812e+11 1.4108e+11 1.33522e+11 1.15757e+11 1.14699e+11 1.09247e+11 9.79711e+10 9.56293e+10 9.39846e+10 9.16341e+10 8.30614e+10 6.02565e+10 5.94012e+10 4.04719e+10 4.02297e+10 3.61396e+10 2.25982e+10 2.21779e+10 2.14492e+10 1.20449e+10 7.36306e+09
threshold=0 1 5.5000000000000009 7.5000000000000009 4.5000000000000009 2 3 2.5000000000000004 4 3.5000000000000004 5 6 7 8 10.500000000000002 9 10 11 12 8.5000000000000018 9.5000000000000018 13 1.5000000000000002 14 15 12.500000000000002 2.5000000000000004 4.5000000000000009 9.5000000000000018 3.5000000000000004
decision_type=1 1 2 2 2 1 1 2 1 2 1 1 1 1 2 9 9 1 9 2 2 1 2 1 9 2 2 2 2 2
left_child=2 3 7 9 13 17 20 18 11 22 14 -5 -10 29 -7 -11 21 24 -1 -8 -6 -9 -2 -20 -4 -12 -15 -18 -19 -3
right_child=1 4 5 8 6 10 19 16 12 15 25 -13 -14 26 -16 -17 27 28 23 -21 -22 -23 -24 -25 -26 -27 -28 -29 -30 -31
leaf_value=925.63994282718397 -1844.3475763324568 -3287.1746300159425 1987.9967916375238 151.66612604889536 -2361.7730627112742 1910.1988696313592 -1515.4480245685579 1105.1962166521209 -574.23820685400085 137.8745035236465 707.26141280711033 844.79880924056238 154.56801740910569 -2507.7941067399229 2469.1003562630749 -811.49670382252498 318.60594921555634 1133.3105096535605 -833.59754657845224 -950.57955684848332 -1790.60604350418 1931.2059920283964 -1314.974823345492 -1.0481090494455436 3325.4476745745824 1522.1455134073894 -2082.081692464395 988.66070280364079 2003.8192648770519 -2928.7164619360078
leaf_weight=224 523 734 175 1397 903 1493 1040 699 1126 313 183 1404 1044 621 2110 2241 301 61 181 1739 945 449 1166 614 1512 159 603 198 114 178
leaf_count=224 523 734 175 1397 903 1493 1040 699 1126 313 183 1404 1044 621 2110 2241 301 61 181 1739 945 449 1166 614 1512 159 603 198 114 178
internal_value=0 -1010.97 1907.14 -364.428 -1889.98 2438.41 -1524.51 757.086 184.776 -1008.72 2132.28 500.868 -224.505 -2690.51 2231.31 -697.786 1191.05 3059.12 55.6708 -1157.81 -2058.56 1442.15 -1478.9 -198.598 3199.24 1055.26 -2279.45 572.996 1608.47 -3182.32
internal_weight=0 15977 8473 9214 6763 5807 4627 2666 4971 4243 3945 2801 2170 2136 3603 2554 1647 1862 1019 2779 1848 1148 1689 795 1687 342 1224 499 175 912
internal_count=24450 15977 8473 9214 6763 5807 4627 2666 4971 4243 3945 2801 2170 2136 3603 2554 1647 1862 1019 2779 1848 1148 1689 795 1687 342 1224 499 175 912
cat_boundaries=0 1 2 3 4 5 6 7 8 9 10 11 12 13 14 15 16
cat_threshold=655616 265307 19990 644 262169 524288 8673 489 132 4 205 524288 4 4457 4 274
is_linear=0
shrinkage=0.05


Tree=5
num_leaves=31
num_cat=18
split_feature=0 0 5 5 5 2 0 5 0 0 5 3 2 0 2 5 3 5 5 3 5 2 1 5 2 5 2 2 2 5
split_gain=1.70675e+13 3.45263e+12 1.82407e+12 1.23703e+12 7.18599e+11 4.40478e+11 2.62043e+11 2.50682e+11 2.26553e+11 2.11865e+11 1.84436e+11 1.73374e+11 1.41578e+11 1.12261e+11 1.07443e+11 7.6579e+10 7.45743e+10 6.33778e+10 6.31147e+10 5.83346e+10 5.04468e+10 4.94332e+10 4.25192e+10 3.42213e+10 3.10802e+10 2.12643e+10 2.10753e+10 1.61704e+10 1.2642e+10 1.13225e+10
threshold=0 1 4.5000000000000009 7.5000000000000009 6.5000000000000009 2 3 3.5000000000000004 4 5 9.5000000000000018 6 7 8 9 2.5000000000000004 10 3.5000000000000004 2.5000000000000004 11 7.5000000000000009 12 13 3.5000000000000004 14 1.0000000180025095e-35 15 16 17 18.500000000000004
decision_type=1 1 2 2 2 1 1 2 1 1 2 9 1 1 1 2 9 2 2 9 2 1 1 2 1 2 1 1 1 2
left_child=2 3 11 7 9 20 12 22 24 23 19 18 -5 -9 -8 25 -12 -11 26 -7 -4 -10 -2 -3 -6 -13 -1 -20 -17 -22
right_child=1 4 5 6 8 10 14 13 21 17 16 15 -14 -15 -16 28 -18 -19 27 -21 29 -23 -24 -25 -26 -27 -28 -29 -30 -31
leaf_value=1247.2437320170102 -1884.4705034851213 -3122.8157315703766 2488.3554123110512 146.53079892993796 -715.32684634096995 2109.9041817727152 737.18791039760572 -114.8440040096317 -92.641800038019824 -2266.1999336522099 2472.8487091630268 -874.17018666398644 836.82723847968782 -837.02850518282287 -342.00268117769065 888.15597581818645 1763.5886357400047 -1687.8757913611496 2221.5312069454708 1330.1762556360936 2979.3513231614475 -1051.9112885711381 -1220.8374841697273 -2598.1408690188946 -1902.481671075607 -102.31353695877199 379.75235127869303 1213.4805362410559 354.6768006653345 3272.2292337582239
leaf_weight=101 429 734 493 1440 101 428 253 773 158 942 1662 109 1559 1875 1917 203 855 953 101 1165 1081 2053 1313 539 1283 492 285 331 347 475
leaf_count=101 429 734 493 1440 101 428 253 773 158 942 1662 109 1559 1875 1917 203 855 953 101 1165 1081 2053 1313 539 1283 492 285 331 347 475
internal_value=0 -931.343 1871.46 -318.725 -1795.48 2297.28 205.125 -936.258 -1314.32 -2347.18 1977.48 549.026 506.963 -629.804 -213.376 146.575 2248.75 -1964.99 1100.07 1561.26 2914.88 -984.087 -1402.1 -2878.06 -1821.6 -242.301 648.889 1528.67 574.176 3068.76
internal_weight=0 16322 8128 9559 6763 6159 5169 4390 3595 3168 4110 1969 2999 2648 2170 1151 2517 1895 818 1593 2049 2211 1742 1273 1384 601 386 432 550 1556
internal_count=24450 16322 8128 9559 6763 6159 5169 4390 3595 3168 4110 1969 2999 2648 2170 1151 2517 1895 818 1593 2049 2211 1742 1273 1384 601 386 432 550 1556
cat_boundaries=0 1 2 3 4 5 6 7 8 9 10 11 12 13 14 15 16 17 18
cat_threshold=655360 265563 19998 262425 644 132 69 481 281 27652 205 132 18434 4 18434 146 8208 4692
is_linear=0
shrinkage=0.05


Tree=6
num_leaves=31
num_cat=16
split_feature=0 0 5 5 5 2 0 2 5 3 5 3 2 0 0 3 5 5 5 5 3 0 3 5 0 1 5 5 5 5
split_gain=1.54156e+13 3.11661e+12 1.65295e+12 1.11829e+12 6.50779e+11 3.29157e+11 2.80725e+11 2.74e+11 2.54537e+11 2.38716e+11 1.70445e+11 1.16738e+11 9.49658e+10 9.30929e+10 7.56045e+10 7.20654e+10 6.9511e+10 5.51408e+10 5.11984e+10 4.62543e+10 4.31957e+10 3.91369e+10 3.7029e+10 3.87281e+10 3.2871e+10 2.84494e+10 2.19584e+10 1.86994e+10 1.6172e+10 6.17641e+09
threshold=0 1 5.5000000000000009 6.5000000000000009 4.5000000000000009 2 3 4 2.5000000000000004 5 3.5000000000000004 6 7 8 9 10 8.5000000000000018 9.5000000000000018 8.5000000000000018 10.500000000000002 11 12 13 13.500000000000002 14 15 7.5000000000000009 2.5000000000000004 4.5000000000000009 1.5000000000000002
decision_type=1 1 2 2 2 1 1 1 2 9 2 9 1 1 1 9 2 2 2 2 9 1 9 2 1 1 2 2 2 2
left_child=2 3 8 10 13 22 18 24 15 -9 21 17 20 29 -12 -1 -8 -7 -6 -13 -10 -2 23 -4 -5 -17 -24 -15 -14 -3
right_child=1 4 5 7 6 11 16 9 12 -11 14 19 28 27 -16 25 -18 -19 -20 -21 -22 -23 26 -25 -26 -27 -28 -29 -30 -31
leaf_value=873.23860568342536 -881.31835643119814 -3111.9392344353282 1148.0460746042352 1404.0328618691519 -2170.0216077938417 1864.3594462911094 -1370.8663052221445 959.17031594545006 1097.3484122846351 -107.16572814589129 -359.12632146040016 1161.1861521224346 1558.5396641969683 -2269.0943237722399 -976.38024085193433 520.33265199729874 -854.12333894667108 2362.0575902194405 -1638.7055522242954 1785.2729486813148 421.09531379133261 -1490.6667747467332 2591.8269294981401 2608.1949093698086 542.82662943934542 -270.12121411905201 3078.1401644525745 -1878.1906310529059 2179.5726060104371 -2823.3839027112699
leaf_weight=222 490 259 95 406 798 820 1040 583 696 4557 1074 484 304 621 985 129 1739 1732 1050 768 421 1252 283 87 212 636 1291 603 160 653
leaf_count=222 490 259 95 406 798 820 1040 583 696 4557 1074 484 304 621 985 129 1739 1732 1050 768 421 1252 283 87 212 636 1291 603 160 653
internal_value=0 -884.973 1778.75 -302.929 -1705.99 2265.52 -1375.26 136.149 731.763 15.4101 -968.869 1980.33 1125.08 -2430.39 -660.899 101.742 -1043.75 2193.54 -1858.08 1531.78 848.465 -1332.88 2855.8 1749.88 1121.95 -131.835 2971.82 -2059.69 1735.29 -2873.82
internal_weight=0 16322 8128 9559 6763 5560 4627 5758 2568 5140 3801 3804 1581 2136 2059 987 2779 2552 1848 1252 1117 1742 1756 182 618 765 1574 1224 464 912
internal_count=24450 16322 8128 9559 6763 5560 4627 5758 2568 5140 3801 3804 1581 2136 2059 987 2779 2552 1848 1252 1117 1742 1756 182 618 765 1574 1224 464 912
cat_boundaries=0 1 2 3 4 5 6 7 8 9 10 11 12 13 14 15 16
cat_threshold=655360 265563 19990 644 18438 4 205 5601 132 262425 4 141 25 274 263433 10
is_linear=0
shrinkage=0.05


Tree=7
num_leaves=31
num_cat=21
split_feature=0 0 5 5 5 2 5 3 0 5 2 0 3 3 2 0 0 2 3 0 2 5 5 0 3 2 1 5 5 2
split_gain=1.39256e+13 2.65993e+12 1.52899e+12 9.71463e+11 5.89645e+11 2.89689e+11 2.376e+11 2.14751e+11 2.08614e+11 1.79431e+11 1.75326e+11 1.43812e+11 1.16354e+11 8.63048e+10 8.13549e+10 7.91115e+10 7.85065e+10 7.56321e+10 7.13357e+10 6.80677e+10 4.57759e+10 3.80059e+10 3.71603e+10 3.64517e+10 3.45749e+10 3.23282e+10 2.68782e+10 1.53724e+10 9.55416e+09 9.40984e+09
threshold=0 1 5.5000000000000009 7.5000000000000009 5.5000000000000009 2 2.5000000000000004 3 4 3.5000000000000004 5 6 7 8 9 10 11 12 13 14 15 2.5000000000000004 13.500000000000002 16 17 18 19 3.5000000000000004 9.5000000000000018 20
decision_type=1 1 2 2 2 1 2 9 1 2 1 1 9 9 1 1 1 1 9 1 1 2 2 1 9 1 1 2 2 1
left_child=2 3 6 9 11 19 18 10 25 23 -5 27 22 -11 -9 -14 17 -8 29 24 -10 -13 -7 -2 -4 -6 -20 -3 -21 -1
right_child=1 4 5 7 8 12 16 14 20 13 -12 21 15 -15 -16 -17 -18 -19 26 28 -22 -23 -24 -25 -26 -27 -28 -29 -30 -31
leaf_value=389.46701381173557 -838.13375840682988 -2820.4148957047219 1663.8794753286002 881.21567310333251 -647.74954425811768 698.37274863060486 773.98438568857762 204.78406011440975 -93.022652308872779 175.86611203113947 -240.25748212193531 -2155.6396137870261 2025.4508550931325 -712.75166143402964 874.92896987900554 1000.7295834675641 -87.508187646222268 1529.5299215909374 -773.41999765460423 964.71077774860828 -993.72927456595539 -1658.1951541032279 1535.6528505859376 -1427.8736120825076 2864.4085211424263 -1762.2411513589932 -57.544221264527259 -2428.2929558665896 1740.0075046070838 1012.0244152228038
leaf_weight=207 490 734 175 390 110 282 812 832 165 313 2706 621 3139 2241 1043 274 153 682 168 61 2273 1006 250 1199 1512 1475 522 379 114 122
leaf_count=207 490 734 175 390 110 282 812 832 165 313 2706 621 3139 2241 1043 274 153 682 168 61 2273 1006 250 1199 1512 1475 522 379 114 122
internal_value=0 -867.969 1638.34 -314.32 -1620.69 2095.38 648.989 159.661 -1237.79 -870.367 -96.6043 -2188.8 1831.4 -605.951 580.227 1946.35 1020.27 1126.76 48.8904 2630.69 -933.4 -1836.77 1071.69 -1270.2 2750.41 -1689.44 -240.403 -2662.96 1390.31 643.367
internal_weight=0 15977 8473 9214 6763 5807 2666 4971 4023 4243 3096 2740 3945 2554 1875 3413 1647 1494 1019 1862 2438 1627 532 1689 1687 1585 690 1113 175 329
internal_count=24450 15977 8473 9214 6763 5807 2666 4971 4023 4243 3096 2740 3945 2554 1875 3413 1647 1494 1019 1862 2438 1627 532 1689 1687 1585 690 1113 175 329
cat_boundaries=0 1 2 3 4 5 6 7 8 9 10 11 12 13 14 15 16 17 18 19 20 21
cat_threshold=655616 265307 19990 314 644 19462 132 274 4 481 524288 524288 481 5 524288 18434 25 274 18434 4 4448
is_linear=0
shrinkage=0.05


Tree=8
num_leaves=31
num_cat=19
split_feature=0 0 5 5 5 2 5 0 0 0 3 5 0 3 3 1 5 3 5 5 5 2 1 2 2 5 2 5 2 2
split_gain=1.25794e+13 2.53622e+12 1.35555e+12 9.28575e+11 5.35608e+11 3.2904e+11 2.23656e+11 2.0171e+11 1.984e+11 1.44234e+11 1.42142e+11 1.33811e+11 1.12644e+11 1.08095e+11 8.12649e+10 6.87383e+10 6.35517e+10 5.35987e+10 5.0543e+10 4.83272e+10 4.61235e+10 4.59399e+10 4.13009e+10 4.05109e+10 3.10266e+10 2.66869e+10 2.49042e+10 2.36996e+10 1.8409e+10 1.5202e+10
threshold=0 1 4.5000000000000009 8.5000000000000018 7.5000000000000009 2 3.5000000000000004 3 4 5 6 7.5000000000000009 7 8 9 10 4.5000000000000009 11 1.5000000000000002 2.5000000000000004 6.5000000000000009 12 13 14 15 3.5000000000000004 16 13.500000000000002 17 18
decision_type=1 1 2 2 2 1 2 1 1 1 9 2 1 9 9 1 2 9 2 2 2 1 1 1 1 2 1 2 1 1
left_child=2 3 10 6 8 11 22 13 25 26 19 21 -8 -5 -9 -13 -10 27 -12 28 -19 -4 -2 -11 -20 -3 -6 -7 -1 -21
right_child=1 4 5 7 9 17 12 14 16 23 18 15 -14 -15 -16 -17 -18 20 24 29 -22 -23 -24 -25 -26 -27 -28 -29 -30 -31
leaf_value=1127.5597721546619 -1667.2067711519489 -2679.3941274201188 1328.7777418977748 1349.1395002143329 -601.28694613097139 497.82807242485791 -40.23676400971064 -399.51747938972244 -1877.1621480324688 21.030701803859277 -441.71618260422065 2018.3533908819722 -692.29219116931961 391.30913917341178 275.7290580128261 1361.3891600396614 -1328.1820122860936 2036.8370072171801 724.16766093410297 1982.8818343978744 2677.7818991549766 239.93713718112429 -1034.3937037775756 -863.96878698974842 81.692844491080109 -2240.1791171992591 -1589.7202536381387 1995.7086722332497 322.8885975899131 1053.2373559990936
leaf_weight=101 429 734 935 334 112 62 948 1224 1224 148 310 2210 2265 2356 690 736 926 336 280 101 1705 129 1313 1843 561 654 1122 46 285 331
leaf_count=101 429 734 935 334 112 62 948 1224 1224 148 310 2210 2265 2356 690 736 926 336 280 101 1705 129 1313 1843 561 654 1122 46 285 331
internal_value=0 -799.277 1606.96 -274.216 -1539.91 1974.03 -749.529 236.739 -1967.01 -1076.13 466.932 1687.91 -502.182 514.793 -155.922 1865.7 -1633.12 2488.5 103.121 965.779 2559.72 1211.51 -1205.74 -798.406 305.179 -2454.76 -1505.56 1039.56 571.014 1340.87
internal_weight=0 16322 8128 9559 6763 6159 4955 4604 3538 3225 1969 4010 3213 2690 1914 2946 2150 2149 1151 818 2041 1064 1742 1991 841 1388 1234 108 386 432
internal_count=24450 16322 8128 9559 6763 6159 4955 4604 3538 3225 1969 4010 3213 2690 1914 2946 2150 2149 1151 818 2041 1064 1742 1991 841 1388 1234 108 386 432
cat_boundaries=0 1 2 3 4 5 6 7 8 9 10 11 12 13 14 15 16 17 18 19
cat_threshold=655360 265563 4577 262425 132 644 69 281 4 314 3 272 4480 4 18434 8918 26626 146 8208
is_linear=0
shrinkage=0.05


Tree=9
num_leaves=31
num_cat=17
split_feature=0 0 5 5 5 2 2 3 0 5 0 3 5 2 1 0 5 0 3 5 5 2 5 2 5 1 5 2 5 5
split_gain=1.13671e+13 2.16551e+12 1.25286e+12 7.96566e+11 4.83648e+11 2.92974e+11 1.93669e+11 1.84218e+11 1.51423e+11 1.48487e+11 1.4145e+11 1.3716e+11 1.30945e+11 1.00488e+11 7.47932e+10 7.11406e+10 5.41349e+10 5.28468e+10 4.43778e+10 4.34995e+10 4.07293e+10 4.06493e+10 2.46631e+10 2.40613e+10 2.18552e+10 2.17128e+10 1.64637e+10 1.6184e+10 1.61051e+10 1.33419e+10
threshold=0 1 4.5000000000000009 7.5000000000000009 6.5000000000000009 2 3 4 5 2.5000000000000004 6 7 9.5000000000000018 8 9 10 2.5000000000000004 11 12 3.5000000000000004 2.5000000000000004 13 12.500000000000002 14 3.5000000000000004 15 1.5000000000000002 16 9.5000000000000018 3.5000000000000004
decision_type=1 1 2 2 2 1 1 9 1 2 1 9 2 1 1 1 2 1 9 2 2 1 2 1 2 1 2 1 2 2
left_child=2 3 11 9 10 12 22 -8 23 26 24 20 17 -11 -14 18 25 -4 -7 -12 27 -10 -5 -6 -3 -13 -2 -1 -17 -18
right_child=1 4 5 6 8 15 7 -9 21 13 19 16 14 -15 -16 28 29 -19 -20 -21 -22 -23 -24 -25 -26 -27 -28 -29 -30 -31
leaf_value=1036.8758480203564 -1490.6418923547574 -2545.4243951033509 1291.3317503824164 628.1596400346649 -542.90537455790752 1000.1381953883816 -227.01736298576549 440.82913036483825 -1044.7973243554118 -193.19484760404572 -1852.93106520181 -745.18959033977217 1958.9103203919012 -805.73323068688251 1246.3436372905435 753.63967094870179 169.27209145737996 169.79566334315712 2467.373432702665 -1373.8103399238707 1229.6908774967926 -589.75622694116714 1269.4192904556007 -1552.2388258834451 -2126.1302587958571 -80.191762427322004 -1103.621192551318 295.51529093819698 1627.3319982844291 649.33931810205638
leaf_weight=106 523 734 1489 267 101 101 2706 1656 996 1006 942 161 1871 2135 658 85 293 130 1959 953 443 1215 342 1283 539 466 579 286 139 286
leaf_count=106 523 734 1489 267 101 101 2706 1656 996 1006 942 161 1871 2135 658 85 293 130 1959 953 443 1215 342 1283 539 466 579 286 139 286
internal_value=0 -783.971 1480.43 -284.419 -1463.14 1824.67 144.78 26.9538 -1068.38 -787.93 -1915.73 402.848 1557.66 -612.73 1786.19 2292.73 57.3265 1210.3 2400.62 -1603.52 890.536 -798.522 972.31 -1483 -2349.44 -264.113 -1287.3 529.975 1240.42 406.404
internal_weight=0 15977 8473 9214 6763 6432 4971 4362 3595 4243 3168 2041 4148 3141 2529 2284 1206 1619 2060 1895 835 2211 609 1384 1273 627 1102 392 224 579
internal_count=24450 15977 8473 9214 6763 6432 4971 4362 3595 4243 3168 2041 4148 3141 2529 2284 1206 1619 2060 1895 835 2211 609 1384 1273 627 1102 392 224 579
cat_boundaries=0 1 2 3 4 5 6 7 8 9 10 11 12 13 14 15 16 17
cat_threshold=655616 265307 4577 19462 314 644 132 69 19990 3 524288 524288 272 481 18434 4 146
is_linear=0
shrinkage=0.05


Tree=10
num_leaves=31
num_cat=18
split_feature=0 0 5 5 5 2 0 5 5 2 3 2 0 3 0 2 2 2 3 1 3 5 3 2 5 5 5 5 5 5
split_gain=1.02771e+13 2.06517e+12 1.10798e+12 7.57386e+11 4.60685e+11 2.21435e+11 2.12027e+11 2.02378e+11 1.67165e+11 1.58021e+11 1.03183e+11 9.40043e+10 9.21546e+10 9.02195e+10 7.87904e+10 7.3533e+10 7.21294e+10 5.79579e+10 5.36888e+10 4.81349e+10 3.70537e+10 3.61331e+10 3.24111e+10 2.45378e+10 2.31969e+10 2.14791e+10 1.61268e+10 1.06856e+10 9.52384e+09 5.77731e+09
threshold=0 1 5.5000000000000009 9.5000000000000018 4.5000000000000009 2 3 4.5000000000000009 2.5000000000000004 4 5 6 7 8 9 10 11 12 13 14 15 9.5000000000000018 16 17 8.5000000000000018 6.5000000000000009 1.5000000000000002 10.500000000000002 4.5000000000000009 1.5000000000000002
decision_type=1 1 2 2 2 1 1 2 2 1 9 1 1 9 1 1 1 1 9 1 9 2 9 1 2 2 2 2 2 2
left_child=2 3 8 7 14 22 21 19 18 12 27 -9 -5 -11 29 -12 20 -8 -1 -2 -10 -6 25 -20 -24 -4 -16 -7 -18 -3
right_child=1 4 5 9 6 10 17 11 16 13 15 -13 -14 -15 26 -17 28 -19 23 -21 -22 -23 24 -25 -26 -27 -28 -29 -30 -31
leaf_value=750.84572417160564 -1428.1609807136365 -1672.4590415471719 1924.2145785156254 -297.02262038195249 -1896.5073892106984 1933.2337523389831 -248.73865691759312 44.630975537164971 903.20421359897 1237.8396166175678 475.76732783980435 -563.30316844645472 422.47668362880677 406.26144611219735 -2453.3594643859865 1523.4510748048315 1310.2223459344161 -951.17095804125074 502.37261162373562 -843.70632199426132 286.57527957128536 -1375.7137922313937 1199.935597270244 -242.25872277700773 2022.0492577265181 2614.5784898340389 -2086.5368193251006 2269.3199580998712 1786.8050753784182 -1322.4961499704341
leaf_weight=222 522 158 125 1301 698 419 352 978 696 403 213 1828 664 1775 400 2629 304 3190 124 1757 421 637 111 641 378 1142 1194 543 160 465
leaf_count=222 522 158 125 1301 698 419 352 978 696 403 213 1828 664 1775 400 2629 304 3190 124 1757 421 637 111 641 378 1142 1194 543 160 465
internal_value=0 -722.255 1452.67 -228.416 -1363.42 1851.2 -1093.68 -637.535 595.474 273.173 1617.4 -353.263 -52.986 565.084 -1962.96 1446.87 914.214 -882.261 84.9075 -987.543 675.4 -1635.76 2335.17 -116.635 1798.65 2526.53 -2165.01 2101.1 1443.45 -1388.96
internal_weight=0 16322 8128 9228 7094 5560 4877 5085 2568 4143 3804 2806 1965 2178 2217 2842 1581 3542 987 2279 1117 1335 1756 765 489 1267 1594 962 464 623
internal_count=24450 16322 8128 9228 7094 5560 4877 5085 2568 4143 3804 2806 1965 2178 2217 2842 1581 3542 987 2279 1117 1335 1756 765 489 1267 1594 962 464 623
cat_boundaries=0 1 2 3 4 5 6 7 8 9 10 11 12 13 14 15 16 17 18
cat_threshold=655360 265561 19990 132 481 132 19990 265280 68 65570 33 5601 27650 4 4 141 205 22
is_linear=0
shrinkage=0.05


Tree=11
num_leaves=31
num_cat=20
split_feature=0 0 5 5 5 2 0 0 3 3 5 0 3 3 1 0 1 5 5 5 3 2 1 5 1 2 5 5 2 3
split_gain=9.27889e+12 1.76476e+12 1.0273e+12 6.59455e+11 4.05002e+11 2.40505e+11 2.25052e+11 1.48429e+11 1.17714e+11 1.13427e+11 1.11889e+11 1.10019e+11 9.2632e+10 7.4587e+10 7.19113e+10 5.73131e+10 5.34265e+10 5.17249e+10 4.42164e+10 4.3712e+10 4.03172e+10 3.45063e+10 3.38496e+10 3.71357e+10 2.86506e+10 2.15158e+10 1.9703e+10 1.35673e+10 1.1572e+10 3.7518e+09
threshold=0 1 4.5000000000000009 5.5000000000000009 7.5000000000000009 2 3 4 5 6 10.500000000000002 7 8 9 10 11 12 2.5000000000000004 3.5000000000000004 3.5000000000000004 13 14 15 2.5000000000000004 16 17 3.5000000000000004 9.5000000000000018 18 19
decision_type=1 1 2 2 2 1 1 1 9 9 2 1 9 9 1 1 1 2 2 2 9 1 1 2 1 1 2 2 1 9
left_child=2 3 8 14 7 10 9 26 22 -5 13 25 -8 -4 28 20 -12 -16 -9 24 -7 -13 23 -1 -10 -6 -3 -17 -2 -21
right_child=1 4 5 6 11 15 12 18 19 -11 16 21 -14 -15 17 27 -18 -19 -20 29 -22 -23 -24 -25 -26 -27 -28 -29 -30 -31
leaf_value=262.10136260053071 -1525.2600099652411 -2307.354513571373 1351.2159344125992 540.68703443008951 -1557.2310749326889 870.4061670114329 -513.60843350679386 -1667.4197490230488 -592.62621563682876 -52.051259698207119 1105.3141810799787 -908.53519172029246 86.919459826612339 652.71007431447515 -1038.2016735357938 678.84788118250231 1802.9119181806136 -547.42868602455405 -1210.4134846630475 786.15186856143134 2232.7267175677348 -471.51638389208921 1480.8154876530521 1004.7055739520949 40.074095706885046 -1029.3456809597396 -1929.9609220347274 1480.753331268091 -903.38455320380365 331.91960529725247
leaf_weight=327 441 734 1346 2084 591 101 1756 942 232 1318 491 915 1011 630 828 85 1681 1527 1208 133 1959 1076 161 347 688 643 654 139 249 153
leaf_count=327 441 734 1346 2084 591 101 1756 942 232 1318 491 915 1011 630 828 85 1681 1527 1208 133 1959 1076 161 347 688 643 654 139 249 153
internal_value=0 -708.19 1337.67 -257.224 -1321.31 1649.39 39.6802 -1692.67 361.9 311.569 1407.52 -917.991 -294.666 1138.66 -859.581 2073.4 1658.6 -716.936 -1404.12 42.0056 2170.46 -675.893 813.68 635 -125.482 -1292.65 -2114.3 1126.18 -1316.96 582.247
internal_weight=0 15977 8473 9214 6763 6432 6169 3538 2041 3402 4148 3225 2767 1976 3045 2284 2172 2355 2150 1206 2060 1991 835 674 920 1234 1388 224 690 286
internal_count=24450 15977 8473 9214 6763 6432 6169 3538 2041 3402 4148 3225 2767 1976 3045 2284 2172 2355 2150 1206 2060 1991 835 674 920 1234 1388 224 690 286
cat_boundaries=0 1 2 3 4 5 6 7 8 9 10 11 12 13 14 15 16 17 18 19 20
cat_threshold=655616 265307 4577 262169 132 69 205 644 58 205 4 524288 4 272 485 5 4 865 416 136
is_linear=0
shrinkage=0.05


Tree=12
num_leaves=31
num_cat=16
split_feature=0 0 5 5 5 2 0 5 2 3 5 2 3 0 2 5 3 5 1 0 3 5 3 5 5 5 3 5 5 5
split_gain=8.39879e+12 1.68139e+12 9.11181e+11 6.39966e+11 3.77262e+11 1.8116e+11 1.74525e+11 1.62187e+11 1.53447e+11 1.42682e+11 1.35925e+11 1.0383e+11 9.58761e+10 6.75457e+10 5.95713e+10 5.17723e+10 4.62499e+10 3.80912e+10 3.61889e+10 3.32281e+10 3.04691e+10 2.98135e+10 2.77367e+10 2.34743e+10 2.11114e+10 1.94319e+10 1.84439e+10 1.39456e+10 1.3045e+10 4.93892e+09
threshold=0 1 5.5000000000000009 9.5000000000000018 4.5000000000000009 2 3 3.5000000000000004 4 5 2.5000000000000004 6 7 8 9 10.500000000000002 10 9.5000000000000018 11 12 13 9.5000000000000018 14 1.0000000180025095e-35 8.5000000000000018 6.5000000000000009 15 2.5000000000000004 14.500000000000002 1.5000000000000002
decision_type=1 1 2 2 2 1 1 2 1 9 2 1 9 1 1 2 9 2 1 1 9 2 9 2 2 2 9 2 2 2
left_child=2 3 10 7 13 20 21 19 28 -10 16 -9 17 29 22 -8 -1 -7 -14 -2 25 -6 -12 -18 -22 -4 -16 -15 -5 -3
right_child=1 4 5 8 6 12 15 11 9 -11 14 -13 18 27 26 -17 23 -19 -20 -21 24 -23 -24 -25 -26 -27 -28 -29 -30 -31
leaf_value=693.71386985121103 -592.93345741634369 -1507.7497172874741 1717.6106868164061 893.28011329345702 -1715.762505334018 1375.9226763799716 -980.65272042979541 3.9081112692565392 982.02476587275021 46.873998226774695 1107.2432966910753 -581.00800876062283 544.24623779103729 -2108.0641547371752 612.46004343470304 -597.96356263067764 -695.5175004675034 1789.5809532901158 1235.4408082235807 -1130.8650019002514 1039.0798403215838 -1242.6987424901367 323.35168841365049 18.806674030499583 1823.3677575166894 2374.2521530886247 1275.2990645104912 -1811.1977900210723 1537.2783864687074 -1184.1746926239998
leaf_weight=222 490 158 125 125 698 820 1849 1152 455 3351 139 2249 306 865 208 1693 141 1732 946 1194 111 637 616 624 378 1142 618 729 212 465
leaf_count=222 490 158 125 125 698 820 1849 1152 455 3351 139 2249 306 865 208 1693 141 1732 946 1194 111 637 616 624 378 1142 618 729 212 465
internal_value=0 -652.812 1313.34 -207.213 -1231.35 1674.74 -987.242 -583.281 253.861 160.95 535.985 -384.58 1463.26 -1773.89 823.404 -795.49 75.5917 1650.2 1072.16 -984.577 2112.5 -1478.96 480.258 -111.397 1612.37 2291.38 1117.71 -1960 1260.99 -1246.23
internal_weight=0 16322 8128 9228 7094 5560 4877 5085 4143 3806 2568 3401 3804 2217 1581 3542 987 2552 1252 1684 1756 1335 755 765 489 1267 826 1594 337 623
internal_count=24450 16322 8128 9228 7094 5560 4877 5085 4143 3806 2568 3401 3804 2217 1581 3542 987 2552 1252 1684 1756 1335 755 765 489 1267 826 1594 337 623
cat_boundaries=0 1 2 3 4 5 6 7 8 9 10 11 12 13 14 15 16
cat_threshold=655360 265561 19990 132 18432 4 19990 205 65570 353 4 4 25 205 4 306
is_linear=0
shrinkage=0.05


Tree=13
num_leaves=31
num_cat=20
split_feature=0 5 0 0 5 0 5 2 2 5 5 0 3 2 3 2 3 0 3 5 2 3 3 0 1 0 5 5 5 5
split_gain=7.61905e+12 1.00467e+12 9.71679e+11 6.70718e+11 5.1317e+11 2.38743e+11 2.02769e+11 1.52986e+11 1.48609e+11 1.32027e+11 1.28226e+11 8.18901e+10 7.85444e+10 7.50372e+10 6.44745e+10 5.39166e+10 4.43716e+10 4.22253e+10 4.01981e+10 3.61058e+10 3.56856e+10 3.15374e+10 2.8509e+10 2.30392e+10 1.79894e+10 1.71588e+10 1.53262e+10 1.33959e+10 8.60827e+09 5.3104e+09
threshold=0 5.5000000000000009 1 2 8.5000000000000018 3 7.5000000000000009 4 5 2.5000000000000004 2.5000000000000004 6 7 8 9 10 11 12 13 3.5000000000000004 14 15 16 17 18 19 9.5000000000000018 4.5000000000000009 1.5000000000000002 1.5000000000000002
decision_type=1 2 1 1 2 1 2 1 1 2 2 1 9 1 9 1 9 1 9 2 1 9 9 1 1 1 2 2 2 2
left_child=1 5 6 7 10 9 19 22 17 18 28 -10 -9 26 -12 -11 27 -6 -1 29 -8 -15 -3 -22 -18 -21 -5 -7 -4 -2
right_child=2 3 4 13 8 16 20 12 11 15 14 -13 -14 21 -16 -17 24 -19 -20 25 23 -23 -24 -25 -26 -27 -28 -29 -30 -31
leaf_value=385.03037775416669 -2126.2090141618755 1163.6846967872414 -1428.9522481304216 659.34029100495161 794.85020053017308 188.08488159179689 -208.60512369516732 1854.5152830170923 14.330973466806222 1380.9725638951484 -954.94089242262226 -481.40649114154496 1269.6890799843957 -164.36093842983246 -532.15215019592767 651.55834881108967 -36.288592702692206 140.48507336466892 -265.0218769877481 -1912.9206079289943 -1508.8430288309942 455.95305699923495 2131.0371391975614 -987.84893071707984 -637.22216578567441 -1321.6604028377744 1189.615464136748 1341.4478433048025 -1164.6171943643947 -1890.0205686785839
leaf_weight=501 355 175 587 198 416 97 138 923 1443 360 1597 1976 2680 246 2358 1134 166 621 436 395 381 1199 1512 1340 661 714 437 34 648 722
leaf_count=501 355 175 587 198 416 97 138 923 1443 360 1597 1976 2680 246 2358 1134 166 621 436 395 381 1199 1512 1340 661 714 437 34 648 722
internal_value=0 996.268 -781.084 1324.83 -507.062 284.681 -1431.67 1623.48 -114.003 546.863 -845.509 -272.747 1424.23 554.824 -706.631 840.925 -382.344 408.073 83.8322 -1761.67 -1051.33 349.946 2038.14 -1111.24 -518.474 -1561.42 1008.39 452.861 -1290.26 -1967.87
internal_weight=0 10759 13691 7370 9646 3389 4045 5290 4456 2431 5190 3419 3603 2080 3955 1494 958 1037 937 2186 1859 1445 1687 1721 827 1109 635 131 1235 1077
internal_count=24450 10759 13691 7370 9646 3389 4045 5290 4456 2431 5190 3419 3603 2080 3955 1494 958 1037 937 2186 1859 1445 1687 1721 827 1109 635 131 1235 1077
cat_boundaries=0 1 2 3 4 5 6 7 8 9 10 11 12 13 14 15 16 17 18 19 20
cat_threshold=655625 49796 524288 524288 19990 31746 265232 132 18454 50 10770 4 263184 13 18434 274 274 128 10 128
is_linear=0
shrinkage=0.05


Tree=14
num_leaves=31
num_cat=22
split_feature=0 5 0 0 5 0 5 2 2 5 5 3 3 2 2 0 2 3 3 0 2 3 3 5 0 1 2 5 0 5
split_gain=6.88136e+12 9.07146e+11 8.78301e+11 6.05966e+11 4.63397e+11 2.15851e+11 1.83006e+11 1.38345e+11 1.35019e+11 1.19359e+11 1.15645e+11 7.55312e+10 7.1887e+10 6.76981e+10 6.34124e+10 4.91561e+10 4.707e+10 4.00792e+10 3.75682e+10 3.27075e+10 3.21963e+10 2.8586e+10 2.54032e+10 2.20393e+10 2.09687e+10 1.6256e+10 1.51038e+10 1.20898e+10 8.79976e+09 2.47114e+09
threshold=0 5.5000000000000009 1 2 8.5000000000000018 3 7.5000000000000009 4 5 2.5000000000000004 2.5000000000000004 6 7 8 9 10 11 12 13 14 15 16 17 4.5000000000000009 18 19 20 4.5000000000000009 21 3.5000000000000004
decision_type=1 2 1 1 2 1 2 1 1 2 2 9 9 1 1 1 1 9 9 1 1 9 9 2 1 1 1 2 1 2
left_child=1 5 6 7 10 9 19 22 15 18 28 -9 -10 26 -12 -6 -11 27 -1 29 -8 -15 -3 -21 -22 -19 -5 -7 -4 -2
right_child=2 3 4 13 8 17 20 11 12 16 14 -13 -14 21 -16 -17 -18 25 -20 23 24 -23 -24 -25 -26 -27 -28 -29 -30 -31
leaf_value=636.97192103623308 -2028.8384646156542 1108.6455449274424 -910.3874265506679 1473.5410205633814 724.19720458455606 178.68064943293936 -198.87961985742726 706.72383509446809 98.656084757846514 519.83563530566914 -864.24378346800222 1446.4957371206881 -420.9912246524072 912.97303386869885 -453.26039233119729 70.642349634987966 1108.7237449734198 -34.577252630753954 -97.779316910544594 -1638.2084509170734 -1435.3303228696595 243.97038009517993 2025.1853732037639 -1211.5391758070857 -938.8223540639525 -605.83588214581494 781.75097870019329 1274.3754150390625 -1345.1150084060027 -1865.7029346630243
leaf_weight=219 563 175 391 143 495 97 138 464 929 812 2068 3139 2342 179 1887 690 682 166 718 687 381 1266 1512 541 1340 661 492 34 844 395
leaf_count=219 563 175 391 143 495 97 138 464 929 812 2068 3139 2342 179 1887 690 682 166 718 687 381 1266 1512 541 1340 661 492 34 844 395
internal_value=0 946.835 -742.284 1259.05 -481.762 270.665 -1360.82 1542.91 -108.25 519.961 -803.377 1353.45 -273.555 527.153 -671.488 347.422 799.559 -363.575 79.7046 -1674.33 -999.494 332.549 1937.2 -1438.52 -1056.4 -492.953 957.97 430.218 -1225.74 -1941.31
internal_weight=0 10759 13691 7370 9646 3389 4045 5290 4456 2431 5190 3603 3271 2080 3955 1185 1494 958 937 2186 1859 1445 1687 1228 1721 827 635 131 1235 958
internal_count=24450 10759 13691 7370 9646 3389 4045 5290 4456 2431 5190 3603 3271 2080 3955 1185 1494 958 937 2186 1859 1445 1687 1228 1721 827 635 131 1235 958
cat_boundaries=0 1 2 3 4 5 6 7 8 9 10 11 12 13 14 15 16 17 18 19 20 21 22
cat_threshold=655625 49796 524288 524288 19990 32258 274 69 18454 481 265232 481 4 4 128 18434 4 274 128 10 18432 2128
is_linear=0
shrinkage=0.05


Tree=15
num_leaves=31
num_cat=22
split_feature=0 5 0 0 5 0 5 3 2 5 5 2 0 2 2 0 0 1 3 5 2 3 2 0 1 0 2 5 0 5
split_gain=6.2157e+12 8.19336e+11 7.92964e+11 5.46506e+11 4.19494e+11 1.95165e+11 1.64806e+11 1.26327e+11 1.26188e+11 1.08481e+11 8.86074e+10 8.86018e+10 6.96307e+10 6.54809e+10 6.13782e+10 5.48049e+10 5.27485e+10 4.53162e+10 3.6202e+10 2.96144e+10 2.9048e+10 2.80682e+10 2.65022e+10 1.90837e+10 1.46895e+10 1.43514e+10 1.38553e+10 1.0911e+10 7.89371e+09 4.71434e+09
threshold=0 5.5000000000000009 1 2 7.5000000000000009 3 7.5000000000000009 4 5 3.5000000000000004 2.5000000000000004 6 7 8 9 10 11 12 13 3.5000000000000004 14 15 16 17 18 19 20 4.5000000000000009 21 1.5000000000000002
decision_type=1 2 1 1 2 1 2 9 1 2 2 1 1 1 1 1 1 1 9 2 1 9 1 1 1 1 1 2 1 2
left_child=1 5 6 7 10 9 19 11 15 13 28 -3 -10 -1 26 -6 -12 -9 27 29 -8 -16 -11 -22 -20 -21 -5 -7 -4 -2
right_child=2 3 4 14 8 18 20 17 12 22 16 -13 -14 -15 21 -17 -18 -19 24 25 23 -23 -24 -25 -26 -27 -28 -29 -30 -31
leaf_value=749.01359843036175 -1926.5442790286643 1441.6571011251476 -866.00319553289637 1404.6794634750468 -60.754453292908856 169.74661320951796 -189.60752711424959 538.20010859921661 284.28557307279988 602.43692405757622 -354.81064359165555 2024.2476229539088 -283.66908812005249 -2.2466592460610082 -168.18592054843904 -556.63518168969949 -799.55870194082217 1224.4831237641686 -32.946617629311298 -1728.6544209251877 -1365.3992808778573 416.29384658630471 1165.139620859303 -892.22895067652962 -575.9955276125412 -1191.6522372150948 743.44207125963931 1210.6566509190729 -1278.646787088649 -1704.0056765400475
leaf_weight=397 355 2451 391 143 849 97 138 364 1734 526 1006 1199 773 1019 246 1681 2368 1276 166 395 381 1199 489 1340 661 714 492 34 844 722
leaf_count=397 355 2451 391 143 849 97 138 364 1734 526 1006 1199 773 1019 246 1681 2368 1276 166 395 381 1199 489 1340 661 714 492 34 844 722
internal_value=0 899.968 -705.377 1196.69 -457.834 257.357 -1293.1 1466.27 -142.898 494.407 -803.009 1638.04 108.733 213.656 501.611 -391.125 -670.373 1076.35 -345.727 -1590.61 -950.211 316.319 890.947 -1004.26 -468.688 -1409.25 911.82 408.707 -1165.37 -1777.36
internal_weight=0 10759 13691 7370 9646 3389 4045 5290 5037 2431 4609 3650 2507 1416 2080 2530 3374 1640 958 2186 1859 1445 1015 1721 827 1109 635 131 1235 1077
internal_count=24450 10759 13691 7370 9646 3389 4045 5290 5037 2431 4609 3650 2507 1416 2080 2530 3374 1640 958 2186 1859 1445 1015 1721 827 1109 635 131 1235 1077
cat_boundaries=0 1 2 3 4 5 6 7 8 9 10 11 12 13 14 15 16 17 18 19 20 21 22
cat_threshold=655625 49796 524288 524288 205 489 4589 265296 8790 18454 264208 264208 4 4 18434 274 8549 128 10 128 18432 2128
is_linear=0
shrinkage=0.05


Tree=16
num_leaves=31
num_cat=21
split_feature=0 5 0 0 5 0 5 5 2 2 5 3 3 2 3 3 1 0 3 0 2 3 2 5 5 3 2 3 5 5
split_gain=5.61542e+12 7.39842e+11 7.16479e+11 4.93124e+11 3.84387e+11 1.76503e+11 1.48743e+11 1.33908e+11 1.16546e+11 1.08126e+11 1.00368e+11 7.23935e+10 6.51635e+10 5.57095e+10 4.95868e+10 4.52367e+10 3.54782e+10 3.30918e+10 3.26999e+10 2.81613e+10 2.72347e+10 2.61117e+10 2.59854e+10 2.54181e+10 1.7832e+10 1.39114e+10 1.38553e+10 1.37667e+10 1.04368e+10 9.8472e+09
threshold=0 5.5000000000000009 1 2 10.500000000000002 3 7.5000000000000009 4.5000000000000009 4 5 2.5000000000000004 6 7 8 9 10 11 12 13 14 15 16 17 1.5000000000000002 4.5000000000000009 18 19 20 15.500000000000002 4.5000000000000009
decision_type=1 2 1 1 2 1 2 2 1 1 2 9 9 1 9 9 1 1 9 1 1 9 1 2 2 9 1 9 2 2
left_child=1 5 6 8 7 10 19 23 22 17 16 -10 -9 25 -11 -12 -1 -6 29 -2 28 -15 -3 -4 -21 -5 -22 -20 -8 -7
right_child=2 3 4 13 9 18 20 12 11 14 15 -13 -14 21 -16 -17 -18 -19 27 24 26 -23 -24 -25 -26 -27 -28 -29 -30 -31
leaf_value=760.57963582819161 -1757.0311941824668 1575.8327030201981 -1239.0920934166982 1437.1294207763674 180.69696019654049 161.25928741140467 -1244.3643561112253 110.24081746608088 1750.4695354800369 177.82996086649376 900.37031414963644 1107.603365207279 -552.39666816591136 489.11505208616603 -317.23679958332968 272.15875107432925 -68.316349661365095 796.21108065143562 -222.11777798650343 -1475.1678931912309 -180.76770996918549 58.253917239698367 2184.1761285148764 -863.24030712058322 -1091.3796074139213 723.99291745765186 -773.19625610612786 -648.03422947545209 -873.62044647880236 1150.1238182516661
leaf_weight=144 958 1224 587 110 515 97 608 421 604 697 1062 2999 3304 807 1800 432 793 397 403 687 138 638 463 1925 541 525 837 424 276 34
leaf_count=144 958 1224 587 110 515 97 608 421 604 697 1062 2999 3304 807 1800 432 793 397 403 687 138 638 463 1925 541 525 837 424 276 34
internal_value=0 855.412 -670.447 1137.37 -435.145 244.771 -1229.11 -668.946 1393.45 -8.66794 470.202 1219.92 -478.692 477.104 -178.888 726.567 66.4581 454.364 -328.755 -1511.75 -903.359 300.588 1754.68 -951.069 -1295.54 867.894 -692.031 -445.617 -1115.99 388.272
internal_weight=0 10759 13691 7370 9646 3389 4045 6237 5290 3409 2431 3603 3725 2080 2497 1494 937 912 958 2186 1859 1445 1687 2512 1228 635 975 827 884 131
internal_count=24450 10759 13691 7370 9646 3389 4045 6237 5290 3409 2431 3603 3725 2080 2497 1494 937 912 958 2186 1859 1445 1687 2512 1228 635 975 827 884 131
cat_boundaries=0 1 2 3 4 5 6 7 8 9 10 11 12 13 14 15 16 17 18 19 20 21
cat_threshold=655625 49796 524288 524288 19990 32258 4 4 18454 69 205 10 73826 4 128 481 141 1556 68 18434 225
is_linear=0
shrinkage=0.05


Tree=17
num_leaves=31
num_cat=19
split_feature=0 5 0 0 5 0 5 2 3 5 0 2 3 3 3 2 5 0 5 3 2 2 2 5 1 5 5 5 1 5
split_gain=5.08108e+12 7.01595e+11 6.06698e+11 4.8277e+11 3.3453e+11 1.78423e+11 1.35039e+11 1.33542e+11 1.12533e+11 9.18119e+10 7.54381e+10 7.42619e+10 6.40666e+10 5.06295e+10 4.75875e+10 4.79541e+10 4.39988e+10 4.08094e+10 3.91614e+10 3.39111e+10 2.80458e+10 2.57733e+10 2.18952e+10 1.31507e+10 1.26338e+10 1.22359e+10 1.14966e+10 8.34985e+09 7.41322e+09 4.20141e+09
threshold=0 5.5000000000000009 1 2 5.5000000000000009 3 5.5000000000000009 4 5 3.5000000000000004 6 7 8 9 10 11 8.5000000000000018 12 2.5000000000000004 13 14 15 16 15.500000000000002 17 15.500000000000002 3.5000000000000004 4.5000000000000009 18 1.5000000000000002
decision_type=1 2 1 1 2 1 2 1 9 2 1 1 9 9 9 1 2 1 2 9 1 1 1 2 1 2 2 2 1 2
left_child=1 5 6 8 18 9 26 13 11 12 -9 -3 -1 -6 23 -16 -10 25 28 27 -11 -20 -19 -5 -21 -8 29 -7 -4 -2
right_child=2 3 4 14 7 19 17 10 16 20 -12 -13 -14 -15 15 -17 -18 22 21 24 -22 -23 -24 -25 -26 -27 -28 -29 -30 -31
leaf_value=771.28643420806713 -1748.2012637200155 1306.3648853165596 -822.10052342539257 857.67396697791855 -656.34333562203665 190.59321087107941 -1388.5219645716209 180.39982294776732 505.16542689342697 558.77954457857106 -341.94965751472347 1838.7747224938682 -5.3154635697327794 -235.88064682953109 1228.7018169199625 289.82131831629539 1110.3034478675131 -51.237842883093883 -913.86860546209891 -84.217547172031331 1134.1560514820824 -530.50479606245574 -831.46832539935122 1591.8362258743455 -526.56937485202047 -547.58004475045709 -1339.3974080299845 1067.424003972234 -1203.271455652332 -1538.1175615854872
leaf_weight=344 355 2451 450 185 1537 102 543 2130 396 598 1011 1199 1072 1407 140 1877 1244 108 926 227 417 1096 1633 91 735 47 637 37 733 722
leaf_count=344 355 2451 450 185 1537 102 543 2130 396 598 1011 1199 1072 1407 140 1877 1244 108 926 227 417 1096 1633 91 735 47 637 37 733 722
internal_value=0 790.294 -656.664 1062.12 -433.01 208.943 -1167.99 -215.724 1324.4 447.074 11.7185 1485.8 188.76 -456.874 449.294 360.729 958.341 -923.146 -846.901 -318.018 811.845 -713.214 -783.637 1061.28 -424.129 -1299.51 -1507.78 395.538 -1075.4 -1607.37
internal_weight=0 11115 13335 7583 9290 3532 4045 6085 5290 2431 3141 3650 1416 2944 2293 2017 1640 2331 3205 1101 1015 2022 1741 276 962 590 1714 139 1183 1077
internal_count=24450 11115 13335 7583 9290 3532 4045 6085 5290 2431 3141 3650 1416 2944 2293 2017 1640 2331 3205 1101 1015 2022 1741 276 962 590 1714 139 1183 1077
cat_boundaries=0 1 2 3 4 5 6 7 8 9 10 11 12 13 14 15 16 17 18 19
cat_threshold=655641 49796 524288 524288 481 205 265280 4589 4 178 4 18432 128 4 8677 385 18434 10 10
is_linear=0
shrinkage=0.05


Tree=18
num_leaves=31
num_cat=20
split_feature=0 0 5 5 5 2 1 3 3 2 0 3 5 0 2 1 2 2 2 5 1 2 5 2 2 5 3 5 5 5
split_gain=4.59176e+12 9.79052e+11 5.08827e+11 3.7598e+11 2.11366e+11 1.38995e+11 1.20881e+11 1.20844e+11 1.05331e+11 1.08125e+11 8.06639e+10 7.95291e+10 7.32796e+10 6.22834e+10 5.9618e+10 5.0995e+10 4.89383e+10 2.45741e+10 2.40546e+10 2.37137e+10 2.22867e+10 1.86987e+10 1.82409e+10 1.76424e+10 1.56939e+10 1.42552e+10 1.19568e+10 1.05828e+10 9.17321e+09 6.94451e+09
threshold=0 1 4.5000000000000009 9.5000000000000018 7.5000000000000009 2 3 4 5 6 7 8 4.5000000000000009 9 10 11 12 13 14 2.5000000000000004 15 16 13.500000000000002 17 18 1.5000000000000002 19 3.5000000000000004 7.5000000000000009 27.500000000000004
decision_type=1 1 2 2 2 1 1 9 9 1 1 9 2 1 1 1 1 1 1 2 1 1 2 1 1 2 9 2 2 2
left_child=2 3 11 6 10 22 18 14 23 -10 27 16 -8 21 -7 -9 26 -15 -2 -12 -18 -6 28 -5 -13 -26 -1 -3 -4 -24
right_child=1 4 5 8 13 7 12 15 9 -11 19 24 -14 17 -16 -17 20 -19 -20 -21 -22 -23 29 -25 25 -27 -28 -29 -30 -31
leaf_value=449.94715175708137 -977.94088861624243 -1641.0239361318647 2231.5986365424264 1232.7562671816447 -1123.0443173574183 462.93724576743074 -540.09446953376994 232.0597424728702 872.7557716519492 19.945406024139256 -1245.6158784918509 356.38770065307619 -107.38363309204578 -679.19920517945457 1331.0936751901779 904.42059134704414 839.20096548845675 -324.10385626790708 -198.86021525776471 -891.00799178595446 196.63929327723548 -669.79962085261286 2443.2977431098093 541.39370477920363 -685.4178421694362 -127.94865191412754 1241.5803878784182 -1364.4395927032565 1564.3535428463426 1548.5641916910809
leaf_weight=110 987 734 72 236 675 248 1757 386 410 3249 658 103 2208 864 3658 1365 157 1287 133 1663 836 559 225 248 167 366 230 654 181 24
leaf_count=110 987 734 72 236 675 248 1757 386 410 3249 658 103 2208 864 3658 1365 157 1287 133 1663 836 559 225 248 167 366 230 654 181 24
internal_value=0 -482.341 971.436 -142.346 -923.79 1196.31 -430.579 1118.29 211.078 117.623 -1185.82 272.958 -298.377 -639.404 1277.3 758.361 490.303 -469.219 -888.004 -987.285 305.587 -924.76 2013.15 896.635 -187.341 -297.042 1005.64 -1499.9 1754.24 2357.06
internal_weight=0 16322 8128 9228 7094 6159 5085 5657 4143 3659 3709 1969 3965 3385 3906 1751 1333 2151 1120 2321 993 1234 502 484 636 533 340 1388 253 249
internal_count=24450 16322 8128 9228 7094 6159 5085 5657 4143 3659 3709 1969 3965 3385 3906 1751 1333 2151 1120 2321 993 1234 502 484 636 533 340 1388 253 249
cat_boundaries=0 1 2 3 4 5 6 7 8 9 10 11 12 13 14 15 16 17 18 19 20
cat_threshold=655360 265561 18434 4 205 4 18438 132 205 644 33 4 8214 353 4528 10 993 14384 528 72
is_linear=0
shrinkage=0.05


Tree=19
num_leaves=31
num_cat=21
split_feature=0 5 0 0 5 3 5 0 3 3 2 3 5 2 0 5 4 5 2 2 1 1 0 0 2 3 5 5 5 2
split_gain=4.18811e+12 5.81767e+11 4.9565e+11 3.5731e+11 2.61143e+11 1.81428e+11 1.61835e+11 1.18438e+11 9.24994e+10 9.20385e+10 8.03462e+10 7.74695e+10 7.23135e+10 6.96406e+10 5.55317e+10 4.83181e+10 4.65195e+10 4.27936e+10 3.66774e+10 2.96695e+10 2.74735e+10 2.37864e+10 2.22596e+10 1.77137e+10 1.50282e+10 1.39077e+10 1.32627e+10 1.12364e+10 1.07958e+10 9.37141e+09
threshold=0 6.5000000000000009 1 2 10.500000000000002 3 5.5000000000000009 4 5 6 7 8 3.5000000000000004 9 10 13.500000000000002 11 2.5000000000000004 12 13 14 15 16 17 18 19 5.5000000000000009 2.5000000000000004 15.500000000000002 20
decision_type=1 2 1 1 2 9 2 1 9 9 1 9 2 1 1 2 9 2 1 1 1 1 1 1 1 9 2 2 2 1
left_child=1 5 4 8 9 17 22 12 15 21 -10 23 -7 -13 28 -3 -11 29 25 -16 -20 -2 -4 -6 -9 -5 -19 -24 -8 -1
right_child=2 3 6 18 11 7 14 24 10 16 -12 13 -14 -15 19 -17 -18 26 20 -21 -22 -23 27 -25 -26 -27 -28 -29 -30 -31
leaf_value=603.12970282623121 -1128.4491976274867 171.59337060296903 -1474.3422146295293 1214.3161687037327 987.98487460049716 -25.112961299811126 -1266.0094924330492 52.042770105075341 1663.6313165436329 -853.45461832425667 1157.6638032338146 603.1784181789011 570.87241474594009 -176.65429893713696 42.126097678022774 1069.9392971063751 -285.59329458448786 910.59188285488153 -123.36167608054289 -673.87493964470252 408.92531420298707 -698.03864784905943 -1287.053425947609 315.40518950798253 -451.23222126647818 597.62018790112018 1406.159983979986 -964.82866511372163 -476.10320358276368 70.56641663931758
leaf_weight=171 511 293 1113 133 210 986 543 183 1339 422 2893 324 1052 2001 161 306 2526 559 322 2532 967 1567 441 237 889 671 178 700 47 173
leaf_count=171 511 293 1113 133 210 986 543 183 1339 422 2893 324 1052 2001 161 306 2526 559 322 2532 967 1567 441 237 889 671 178 700 47 173
internal_value=0 717.608 -596.064 999.683 -338.142 253.3 -958.043 57.7509 1235.82 -553.459 1321.3 51.0359 281.151 -65.863 -735.792 620.161 -369.492 807.88 446.596 -631.072 276.031 -808.778 -1286.01 646.087 -365.632 713.3 1030.28 -1079.9 -1183.03 354.884
internal_weight=0 11115 13335 6924 7798 4191 5537 3110 4831 5026 4232 2772 2038 2325 3283 599 2948 1081 2093 2693 1289 2078 2254 447 1072 804 737 1141 590 344
internal_count=24450 11115 13335 6924 7798 4191 5537 3110 4831 5026 4232 2772 2038 2325 3283 599 2948 1081 2093 2693 1289 2078 2254 447 1072 804 737 1141 590 344
cat_boundaries=0 1 2 3 4 5 6 7 8 9 10 11 12 13 14 15 16 17 18 19 20 21
cat_threshold=655641 265314 524288 68 524288 274 50 27158 68 18946 128 1 26774 18434 4 4 132 263168 23554 68 272
is_linear=0
shrinkage=0.05


Tree=20
num_leaves=31
num_cat=22
split_feature=0 5 0 0 5 5 3 0 1 2 3 5 5 0 2 0 5 3 3 3 2 2 2 5 2 2 2 5 2 1
split_gain=3.78195e+12 5.25522e+11 4.51629e+11 3.22285e+11 1.9977e+11 1.68263e+11 1.63911e+11 1.06955e+11 9.27652e+10 8.39171e+10 6.69687e+10 6.5263e+10 6.12231e+10 6.02104e+10 5.28127e+10 4.72861e+10 3.85034e+10 3.83882e+10 3.44092e+10 3.15465e+10 3.09162e+10 2.44779e+10 2.42019e+10 2.20883e+10 2.12741e+10 1.58583e+10 1.5061e+10 1.19696e+10 8.50704e+09 7.32267e+09
threshold=0 6.5000000000000009 1 2 11.500000000000002 7.5000000000000009 3 4 5 6 7 3.5000000000000004 4.5000000000000009 8 9 10 2.5000000000000004 11 12 13 14 15 16 4.5000000000000009 17 18 19 5.5000000000000009 20 21
decision_type=1 2 1 1 2 2 9 1 1 1 9 2 2 1 1 1 2 9 9 9 1 1 1 2 1 1 1 2 1 1
left_child=1 6 4 9 8 13 16 11 24 14 22 -8 -10 -4 -3 26 28 -11 29 -12 -20 -17 -6 -15 -2 -9 -7 -18 -1 -5
right_child=2 3 5 18 10 15 7 25 12 17 19 -13 -14 23 -16 21 27 -19 20 -21 -22 -23 -24 -25 -26 -27 -28 -29 -30 -31
leaf_value=574.63932265813844 -1100.2327491108847 285.51366658694502 -1448.6551673881279 207.2926257994117 466.44142329329156 -180.48618884387318 -23.857318095890069 196.64361467736913 -618.23497853663048 1615.1454185599628 193.44681789353984 542.32879921256824 -179.35287487558745 -1083.3647818286724 1064.272614898229 62.605008136716663 865.0622862594073 1023.0517557373595 1257.2781055701041 748.08272088963724 449.04823042718681 -497.97388825116025 -307.29560688326518 -788.2534627644136 -568.03582687240055 -415.55043849124814 -895.53097526637066 1335.8519783834395 67.230905776727397 -246.4374418718387
leaf_weight=171 580 266 958 154 108 101 986 117 1242 1331 896 1052 2206 1458 2687 224 559 547 127 364 1627 1767 771 1122 405 955 1133 178 173 185
leaf_count=171 580 266 958 154 108 101 986 117 1242 1331 896 1052 2206 1458 2687 224 559 547 127 364 1627 1767 771 1122 405 955 1133 178 173 185
internal_value=0 681.961 -566.386 950.054 -270.174 -853.409 240.668 54.7994 -462.074 1174.32 126.268 267.093 -336.466 -1092.78 995.324 -593.45 767.795 1449.02 424.764 358.304 514.365 -434.908 -208.051 -951.338 -889.319 -347.535 -838.928 978.767 338.119 -40.2846
internal_weight=0 11115 13335 6924 6572 6763 4191 3110 4433 4831 2139 2038 3448 3538 2953 3225 1081 1878 2093 1260 1754 1991 879 2580 985 1072 1234 737 344 339
internal_count=24450 11115 13335 6924 6572 6763 4191 3110 4433 4831 2139 2038 3448 3538 2953 3225 1081 1878 2093 1260 1754 1991 879 2580 985 1072 1234 737 344 339
cat_boundaries=0 1 2 3 4 5 6 7 8 9 10 11 12 13 14 15 16 17 18 19 20 21 22
cat_threshold=655641 265282 524288 68 524288 4 4457 306 128 33 644 205 274 137 18432 27650 18944 416 19974 19456 272 1
is_linear=0
shrinkage=0.05


Tree=21
num_leaves=31
num_cat=17
split_feature=0 5 0 0 5 3 0 5 5 3 2 2 3 3 5 5 5 3 2 2 2 0 5 5 5 5 2 2 5 5
split_gain=3.41554e+12 4.74788e+11 4.09928e+11 2.90869e+11 2.39845e+11 1.48074e+11 9.656e+10 9.14154e+10 8.97476e+10 8.18488e+10 7.38303e+10 6.52217e+10 5.98146e+10 5.89266e+10 5.88998e+10 4.37357e+10 3.46429e+10 3.2583e+10 3.16171e+10 2.30346e+10 2.13647e+10 1.86981e+10 1.45796e+10 1.14525e+10 1.08025e+10 1.07772e+10 9.42333e+09 9.37098e+09 8.7856e+09 7.75286e+09
threshold=0 6.5000000000000009 1 2 11.500000000000002 3 4 7.5000000000000009 4.5000000000000009 5 6 7 8 9 3.5000000000000004 13.500000000000002 2.5000000000000004 10 11 12 13 14 2.5000000000000004 9.5000000000000018 5.5000000000000009 4.5000000000000009 15 16 15.500000000000002 12.500000000000002
decision_type=1 2 1 1 2 9 1 2 2 9 1 1 9 9 2 2 2 9 1 1 1 1 2 2 2 2 1 1 2 2
left_child=1 5 7 9 8 16 14 21 20 15 -11 29 -10 -13 -7 -3 27 23 -19 28 -4 -2 -8 -5 -18 -23 -21 -1 -9 -6
right_child=2 3 4 17 11 6 22 19 12 10 -12 13 -14 -15 -16 -17 24 18 -20 26 -22 25 -24 -25 -26 -27 -28 -29 -30 -31
leaf_value=540.95803480242739 -1376.9706627699954 112.01458079497561 -882.96288253151749 371.81957336425785 99.791054618358615 -22.664448993829879 -608.03112957527696 -1023.0986848748822 -72.636383359698968 1898.9506523200971 1122.2680246688158 -334.96735184582803 -504.39799304256996 139.37561611083646 515.21235871478177 966.70171399210017 821.80917432918113 596.17535650530886 164.4100160706441 -108.03148903717866 -540.33387304986275 -1146.6799743663448 -209.56143075997193 1164.2061323306434 1269.0593861440595 -848.31742959013707 -586.38868710525401 9.5354017375428004 -674.60522781198017 935.77877604044409
leaf_weight=192 958 293 1559 60 32 986 333 579 1143 379 3853 1090 2801 1609 1052 306 559 684 1159 138 848 687 739 190 178 541 879 152 263 208
leaf_count=192 958 293 1559 60 32 986 333 579 1143 379 3853 1090 2801 1609 1052 306 559 684 1159 138 848 687 739 190 178 541 879 152 263 208
internal_value=0 648.136 -538.199 902.96 -354.362 228.685 52.0244 -958.496 -527.569 1116.02 1196.14 18.7208 -380.733 -52.7187 253.738 539.624 729.7 403.923 327.005 -703.111 -768.166 -1180.06 -330.259 936.571 929.829 -1007.03 -523.163 322.146 -903.516 791.341
internal_weight=0 11115 13335 6924 9290 4191 3110 4045 6351 4831 4232 2939 3944 2699 2038 599 1081 2093 1843 1859 2407 2186 1072 250 737 1228 1017 344 842 240
internal_count=24450 11115 13335 6924 9290 4191 3110 4045 6351 4831 4232 2939 3944 2699 2038 599 1081 2093 1843 1859 2407 2186 1072 250 737 1228 1017 344 842 240
cat_boundaries=0 1 2 3 4 5 6 7 8 9 10 11 12 13 14 15 16 17
cat_threshold=655641 49796 524288 68 524288 274 18434 18432 69 306 4 27678 865 4513 128 18434 400
is_linear=0
shrinkage=0.05


Tree=22
num_leaves=31
num_cat=23
split_feature=0 5 0 0 5 3 5 0 1 2 3 5 2 1 3 0 2 5 3 2 3 0 2 2 2 5 0 3 5 2
split_gain=3.08446e+12 4.32093e+11 3.80485e+11 2.49899e+11 1.64667e+11 1.51324e+11 1.36626e+11 9.45264e+10 7.30268e+10 6.8841e+10 6.37818e+10 6.24798e+10 5.96586e+10 5.6104e+10 5.08261e+10 4.79683e+10 4.11731e+10 3.59969e+10 3.0423e+10 3.03631e+10 2.40359e+10 2.21122e+10 2.09633e+10 2.03296e+10 1.86876e+10 1.82081e+10 1.7881e+10 9.64585e+09 8.84813e+09 8.50121e+09
threshold=0 7.5000000000000009 1 2 9.5000000000000018 3 7.5000000000000009 4 5 6 7 3.5000000000000004 8 9 10 11 12 2.5000000000000004 13 14 15 16 17 18 19 3.5000000000000004 20 21 2.5000000000000004 22
decision_type=1 2 1 1 2 9 2 1 1 1 9 2 1 1 9 1 1 2 9 1 9 1 1 1 1 2 1 9 2 1
left_child=1 5 4 9 8 17 15 11 28 13 26 -7 -12 -3 -10 -4 23 29 -11 27 -21 -18 -9 -8 -19 -17 -6 -5 -2 -1
right_child=2 3 6 19 10 7 16 22 14 18 12 -13 -14 -15 -16 25 21 24 -20 20 -22 -23 -24 -25 -26 -27 -28 -29 -30 -31
leaf_value=515.24913826649743 -1178.6900185876964 1046.595848397649 -1308.8334020482607 983.87432346233754 161.06941649025802 -21.531228012487322 288.75108182333349 392.33391248914933 -115.00165453012762 348.28536848248666 729.72273113057372 498.30340870889324 -138.92815122266674 498.92353533185582 -540.34048373270321 -1019.8403707744191 -1015.3055425640036 1177.5016805685661 1380.0713361732651 324.90227084210312 -230.75507098033017 -583.42361043600238 -319.08455975237484 -396.6892336059035 652.58995338049465 -751.64579784728767 820.69082417642187 488.1074690234754 -794.23712552930886 9.0880640383119946
leaf_weight=192 196 2001 958 163 186 986 113 107 1362 101 207 1397 2221 696 1483 1113 481 404 1779 746 256 1216 1131 1415 498 1467 284 506 633 152
leaf_count=192 196 2001 958 163 186 986 113 107 1362 101 207 1397 2221 696 1483 1113 481 404 1779 746 256 1216 1131 1415 498 1467 284 506 633 152
internal_value=0 615.924 -511.449 891.625 -239.598 263.259 -774.879 98.245 -462.244 1082.31 41.8405 282.031 -62.1817 907.626 -337.832 -990.587 -540.638 736.11 1326.78 360.689 182.061 -711.068 -254.946 -344.451 907.984 -863.995 568.443 621.611 -874.583 306.839
internal_weight=0 11115 13335 6248 6572 4867 6763 3621 3674 4577 2898 2383 2428 2697 2845 3538 3225 1246 1880 1671 1002 1697 1238 1528 902 2580 470 669 829 344
internal_count=24450 11115 13335 6248 6572 4867 6763 3621 3674 4577 2898 2383 2428 2697 2845 3538 3225 1246 1880 1671 1002 1697 1238 1528 902 2580 470 669 829 344
cat_boundaries=0 1 2 3 4 5 6 7 8 9 10 11 12 13 14 15 16 17 18 19 20 21 22 23
cat_threshold=655641 265282 655360 68 524288 4 4393 68 18432 3 13 128 31770 272 18590 173 132 27650 16386 14866 64 5 400
is_linear=0
shrinkage=0.05


Tree=23
num_leaves=31
num_cat=21
split_feature=0 0 5 5 5 3 1 3 3 1 2 2 3 0 0 2 2 2 5 2 2 5 3 2 5 3 5 2 5 5
split_gain=2.78655e+12 6.04273e+11 3.11971e+11 2.42544e+11 1.29895e+11 1.04191e+11 8.85241e+10 7.67741e+10 6.54987e+10 7.01938e+10 6.36869e+10 5.72786e+10 5.69473e+10 5.2044e+10 3.83416e+10 3.737e+10 3.71242e+10 3.40247e+10 3.37625e+10 2.94441e+10 2.79956e+10 2.63934e+10 2.22075e+10 1.96833e+10 1.42522e+10 1.32846e+10 8.83309e+09 7.07067e+09 3.89054e+09 3.21198e+09
threshold=0 1 7.5000000000000009 9.5000000000000018 5.5000000000000009 2 3 4 5 6 7 8 9 10 11 12 13 14 3.5000000000000004 15 16 4.5000000000000009 17 18 2.5000000000000004 19 1.5000000000000002 20 2.5000000000000004 5.5000000000000009
decision_type=1 1 2 2 2 9 1 9 9 1 1 1 9 1 1 1 1 1 2 1 1 2 9 1 2 9 2 1 2 2
left_child=2 3 5 6 14 11 23 10 20 22 -5 18 -8 25 28 -11 -9 -15 -1 29 -4 -21 -10 -2 -13 -6 -16 -22 -3 -7
right_child=1 4 8 7 13 19 12 16 9 15 -12 24 -14 17 26 -17 -18 -19 -20 21 27 -23 -24 -25 -26 -27 -28 -29 -30 -31
leaf_value=160.27705873065526 -811.4881167078928 -869.85815230980359 411.90295288603187 729.34095207382654 -1305.0340112333479 -648.13943859524204 -47.665443662273439 161.66054338115993 573.98377205694146 1521.239241778499 -79.501566467153168 552.36122789837066 -427.73034292290276 -658.33104623722136 -1382.8120360075204 922.43277564685729 658.86430964057308 -340.33462436806838 612.81338432305085 -130.24322021967077 1228.8192223359065 394.48946068183238 -112.41667977068799 -119.42329193862167 1073.2938577109287 -712.28726694079421 -1096.8546982881285 1657.290523805209 -684.62676180227163 -1288.779753051758
leaf_weight=720 987 445 108 262 255 90 2101 676 496 363 2302 168 1864 1491 341 2146 903 2148 964 569 829 414 156 133 601 335 1298 479 781 25
leaf_count=720 987 445 108 262 255 90 2101 676 496 363 2302 168 1864 1491 341 2146 903 2148 964 569 829 414 156 133 601 335 1298 479 781 25
internal_value=0 -375.491 757.019 -108.39 -722.298 406.268 -339.886 175.48 1030.8 891.82 5.66166 586.276 -226.966 -547.215 -983.259 1014.76 448.359 -472.074 416.855 -1.21101 1325.38 89.8391 410.536 -731.09 947.171 -985.955 -1149.34 1397.11 -745.777 -724.416
internal_weight=0 16322 8128 9228 7094 3551 5085 4143 4577 3161 2564 2453 3965 4229 2865 2509 1579 3639 1684 1098 1416 983 652 1120 769 590 1639 1308 1226 115
internal_count=24450 16322 8128 9228 7094 3551 5085 4143 4577 3161 2564 2453 3965 4229 2865 2509 1579 3639 1684 1098 1416 983 652 1120 769 590 1639 1308 1226 115
cat_boundaries=0 1 2 3 4 5 6 7 8 9 10 11 12 13 14 15 16 17 18 19 20 21
cat_threshold=655360 265561 205 4 314 196 4 18432 4585 77 128 114722 19528 481 353 1121 73 41 4528 58 5924
is_linear=0
shrinkage=0.05


Tree=24
num_leaves=31
num_cat=23
split_feature=0 5 0 0 5 0 2 2 3 2 5 2 4 5 1 1 1 3 3 3 2 2 0 5 4 2 5 2 5 0
split_gain=2.5422e+12 3.56592e+11 3.0906e+11 2.22047e+11 1.85916e+11 9.32611e+10 8.08685e+10 7.80844e+10 7.79222e+10 7.02722e+10 6.74587e+10 5.30731e+10 4.40199e+10 4.23717e+10 3.23904e+10 3.18432e+10 3.00189e+10 2.95207e+10 2.3629e+10 1.83174e+10 1.74646e+10 1.44632e+10 1.35252e+10 1.18211e+10 1.17072e+10 1.13271e+10 1.12629e+10 8.12091e+09 8.00328e+09 7.92445e+09
threshold=0 5.5000000000000009 1 2 11.500000000000002 3 4 5 6 7 7.5000000000000009 8 9 3.5000000000000004 10 11 12 13 14 15 16 17 18 2.5000000000000004 19 20 1.0000000180025095e-35 21 4.5000000000000009 22
decision_type=1 2 1 1 2 1 1 1 9 1 2 1 9 2 1 1 1 9 9 9 1 1 1 2 9 1 2 1 2 1
left_child=1 5 10 6 7 9 18 14 -8 26 22 21 -9 -11 -4 25 -13 -17 -3 24 29 -6 -2 -21 -7 -5 -1 -22 -24 -12
right_child=2 3 4 15 11 19 8 12 -10 13 20 16 -14 -15 -16 17 -18 -19 -20 23 27 -23 28 -25 -26 -27 -28 -29 -30 -31
leaf_value=-41.753180895353623 -1187.799933788205 555.540068724496 -909.15477259730949 -150.80143789444168 705.39310738220217 -328.37374749270356 1353.9809517978488 -780.77088495069938 863.6322386006018 -41.789430533158907 -588.20890065053879 136.43549635322216 -196.17846998022586 448.06541686280275 -529.78811741881032 988.12760873752177 -243.52887625860615 358.99506984834551 -334.97242830276491 -622.57164640326948 -72.758277557991647 223.01346617969557 -991.6911340630212 -221.56689435640192 308.77417694235078 328.39009500577305 847.22913670289336 -511.37697388527772 -734.57681711165174 -974.42282578722177
leaf_weight=38 958 130 803 377 240 100 1145 362 3865 1071 435 829 2643 751 2543 215 1366 1530 150 287 138 504 687 511 203 171 571 879 541 407
leaf_count=38 958 130 803 377 240 100 1145 362 3865 1071 435 829 2643 751 2543 215 1366 1530 150 287 138 504 687 511 203 171 571 879 541 407
internal_value=0 559.329 -464.159 753.114 -304.543 144.867 931.057 -457.03 978.172 317.051 -829.089 23.937 -268.958 159.247 -623.269 337.065 -100.057 441.699 83.3794 -236.049 -609.72 385.911 -1019.44 -361.261 94.7214 1.93271 778.968 -453.147 -871.323 -784.14
internal_weight=0 11115 13335 7583 9290 3532 5290 6351 5010 2431 4045 2939 3005 1822 3346 2293 2195 1745 280 1101 1859 744 2186 798 303 548 609 1017 1228 842
internal_count=24450 11115 13335 7583 9290 3532 5290 6351 5010 2431 4045 2939 3005 1822 3346 2293 2195 1745 280 1101 1859 744 2186 798 303 548 609 1017 1228 842
cat_boundaries=0 1 2 3 4 5 6 7 8 9 10 11 12 13 14 15 16 17 18 19 20 21 22 23
cat_threshold=655641 49796 524288 524288 33 481 68 10774 31750 1 4 4 2 4 133 69 865 18432 128 5 4520 18434 49664
is_linear=0
shrinkage=0.05


Tree=25
num_leaves=31
num_cat=23
split_feature=0 5 0 0 5 3 5 3 2 1 2 0 1 0 1 2 3 2 5 1 3 5 2 5 3 0 0 3 5 2
split_gain=2.29605e+12 3.28462e+11 2.86107e+11 1.81068e+11 1.28669e+11 1.23949e+11 1.0337e+11 8.98742e+10 6.97788e+10 6.91937e+10 5.84648e+10 5.23255e+10 4.26613e+10 4.26581e+10 3.70338e+10 3.28276e+10 2.81615e+10 2.74285e+10 2.73229e+10 1.96165e+10 1.92984e+10 1.78782e+10 1.60976e+10 1.33448e+10 1.31089e+10 1.21176e+10 1.1714e+10 9.66908e+09 7.53959e+09 7.52006e+09
threshold=0 7.5000000000000009 1 2 5.5000000000000009 3 8.5000000000000018 4 5 6 7 8 9 10 11 12 13 14 2.5000000000000004 15 16 1.0000000180025095e-35 17 2.5000000000000004 18 19 20 21 3.5000000000000004 22
decision_type=1 2 1 1 2 9 2 9 1 1 1 1 1 1 1 1 9 1 2 1 9 2 1 2 9 1 1 9 2 1
left_child=1 5 4 10 14 18 13 26 -9 21 12 -11 -3 28 27 19 -5 -18 29 -8 -12 -7 -20 -15 -16 -17 -6 -2 -4 -1
right_child=2 3 6 16 7 9 15 8 -10 11 20 -13 -14 23 24 25 17 -19 22 -21 -22 -23 -24 -25 -26 -27 -28 -29 -30 -31
leaf_value=474.07112043777317 -10.834809017486085 903.14637573963273 -1171.8430924033598 -82.08610930292862 234.45869262623339 -1337.6966879411177 -328.76244369451859 498.26000424783444 -203.48308809753965 310.65636234079409 1289.8911329262351 -173.98033080661628 403.71175215058611 -895.55561796639859 -859.383874384357 -112.35118323042883 1080.592719004889 369.24073145683047 1049.546542451232 -766.0822976332106 853.38737745370042 -298.18668062403583 568.32598277339787 -627.1829325403412 -512.84649360838046 -403.26870751659521 761.85282737708394 -373.45362939853709 -949.67322928653891 -0.66697193663797272
leaf_weight=192 303 1831 734 308 202 44 441 385 3492 2140 1341 747 632 621 629 687 149 1436 404 858 551 690 498 1823 758 803 314 489 796 152
leaf_count=192 303 1831 734 308 202 44 441 385 3492 2140 1341 747 632 621 629 687 149 1436 404 858 551 690 498 1823 758 803 314 489 796 152
internal_value=0 531.54 -441.136 771.911 -205.408 224.055 -669.565 -49.9066 -132.695 74.8005 949.202 185.091 777.143 -834.315 -519.852 -437.217 357.138 442.468 651.971 -621.261 1167.92 -355.655 801.798 -692.541 -675.027 -270.777 563.775 -236.589 -1049.4 278.065
internal_weight=0 11115 13335 6248 6572 4867 6763 4393 3877 3621 4355 2887 2463 3974 2179 2789 1893 1585 1246 1299 1892 734 902 2444 1387 1490 516 792 1530 344
internal_count=24450 11115 13335 6248 6572 4867 6763 4393 3877 3621 4355 2887 2463 3974 2179 2789 1893 1585 1246 1299 1892 734 902 2444 1387 1490 516 792 1530 344
cat_boundaries=0 1 2 3 4 5 6 7 8 9 10 11 12 13 14 15 16 17 18 19 20 21 22 23
cat_threshold=655641 265282 524288 68 4 18438 4 4385 655616 3 132 10 481 274 26624 2 205 14866 50 40992 64 76 400
is_linear=0
shrinkage=0.05


Tree=26
num_leaves=31
num_cat=21
split_feature=0 5 0 0 5 5 2 2 1 1 3 3 5 0 3 2 2 3 2 1 5 5 2 5 5 0 1 4 5 3
split_gain=2.07395e+12 2.97708e+11 2.58309e+11 2.14676e+11 1.20123e+11 9.31483e+10 8.98369e+10 7.2889e+10 7.06038e+10 6.36194e+10 5.68921e+10 4.97208e+10 4.22418e+10 3.85407e+10 3.693e+10 3.6562e+10 2.98776e+10 2.22318e+10 1.90187e+10 1.86614e+10 1.67531e+10 1.61729e+10 1.51958e+10 1.46186e+10 1.41808e+10 1.38082e+10 1.31471e+10 9.57654e+09 8.63511e+09 2.2927e+09
threshold=0 4.5000000000000009 1 2 11.500000000000002 8.5000000000000018 3 4 5 6 7 8 4.5000000000000009 9 10 11 12 13 14 15 1.0000000180025095e-35 4.5000000000000009 16 1.0000000180025095e-35 13.500000000000002 17 18 19 5.5000000000000009 20
decision_type=1 2 1 1 2 2 1 1 1 1 9 9 2 1 9 1 1 9 1 1 2 2 1 2 2 1 1 9 2 9
left_child=1 8 4 6 9 13 24 -8 23 22 18 19 -11 29 28 -16 26 -13 -10 -6 -12 -15 -2 -1 -3 -18 -7 -25 -5 -4
right_child=2 3 5 14 11 16 7 -9 10 12 20 17 -14 21 15 -17 25 -19 -20 -21 -22 -23 -24 27 -26 -27 -28 -29 -30 -31
leaf_value=-1221.6913518873314 -873.14146175853284 1238.1382925706287 -872.11760598653586 -721.66202827712243 -352.30912427221028 -351.95283736341139 7.6243976335584023 802.74818304705695 654.94435946782437 -474.22377072470977 -584.59764937713362 740.05648458633425 -109.67045680467152 -809.08944439482457 886.48164759659528 268.42494971146226 -49.821663046444172 205.29633891614895 48.397822853370954 120.82908109816832 35.461957768179616 -573.62482684490374 -430.58878995780492 -174.54988011678063 1778.3285614636479 -369.22418181159736 -741.30217926773366 -657.04383529900269 -70.203643065868675 -1198.0792540631976
leaf_weight=59 580 241 472 59 550 398 316 5062 590 1242 119 240 2206 1458 273 1857 500 1020 179 329 1288 1459 405 275 245 1136 755 183 369 585
leaf_count=59 580 241 472 59 550 398 316 5062 590 1242 119 240 2206 1458 273 1857 500 1020 179 329 1288 1459 405 275 245 1136 755 183 369 585
internal_value=0 505.279 -419.157 652.06 -195.173 -636.206 818.54 756.129 48.1195 -343.958 173.02 112.266 -240.289 -792.599 266.176 351.413 -415.645 312.181 516.192 -175.852 -16.8611 -688.955 -697.334 -471.795 1480 -272.503 -611.086 -385.494 -156.354 -1062.06
internal_weight=0 11115 13335 8422 6572 6763 5864 5378 2693 4433 2176 2139 3448 3974 2558 2130 2789 1260 769 879 1407 2917 985 517 486 1636 1153 458 428 1057
internal_count=24450 11115 13335 8422 6572 6763 5864 5378 2693 4433 2176 2139 3448 3974 2558 2130 2789 1260 769 879 1407 2917 985 517 486 1636 1153 458 428 1057
cat_boundaries=0 1 2 3 4 5 6 7 8 9 10 11 12 13 14 15 16 17 18 19 20 21
cat_threshold=655641 265282 524288 18434 33 4 4 5 306 128 274 26630 353 4 13074 5 416 8224 2 6 453
is_linear=0
shrinkage=0.05


Tree=27
num_leaves=31
num_cat=20
split_feature=0 0 5 5 5 3 2 3 3 2 0 1 2 2 2 5 2 1 1 2 4 0 5 3 5 3 5 5 5 5
split_gain=1.87415e+12 4.0989e+11 2.17344e+11 1.76762e+11 8.82256e+10 8.37069e+10 6.95182e+10 6.18212e+10 5.65631e+10 4.4539e+10 4.36805e+10 4.12229e+10 3.90186e+10 3.56992e+10 3.16433e+10 3.08381e+10 2.87503e+10 2.75572e+10 2.71672e+10 2.56867e+10 2.54125e+10 2.06903e+10 1.92107e+10 1.57823e+10 1.49303e+10 1.07171e+10 1.04294e+10 9.83933e+09 4.62679e+09 1.747e+09
threshold=0 1 7.5000000000000009 9.5000000000000018 4.5000000000000009 2 3 4 5 6 7 8 9 10 11 2.5000000000000004 12 13 14 15 16 17 1.5000000000000002 18 8.5000000000000018 19 2.5000000000000004 21.500000000000004 1.5000000000000002 1.5000000000000002
decision_type=1 1 2 2 2 9 1 9 9 1 1 1 1 1 1 2 1 1 1 1 9 1 2 9 2 9 2 2 2 2
left_child=2 3 5 6 21 9 11 16 12 20 25 -2 27 -9 -12 -8 -5 -14 23 -7 -1 29 -21 -10 -20 -6 -11 -4 -23 -3
right_child=1 4 8 7 10 19 15 13 18 26 14 -13 17 -15 -16 -17 -18 -19 24 22 -22 28 -24 -25 -26 -27 -28 -29 -30 -31
leaf_value=-52.313596714859784 -715.5274140620752 -771.72301803096661 1151.9932959363241 513.61260307312011 -575.9171184756151 -711.77657123260497 -469.56176420817013 1001.068936260676 476.38229655617164 469.30863711947489 16.861250680116687 -310.59570371417584 930.95275155971422 256.75780862122264 -455.83704681296098 81.307118869699238 -156.23194700095016 453.34246969521666 178.96154557766994 -432.25759346833706 437.42789347440885 -1157.129466019348 150.84067922742497 -195.70402979103915 766.63540324033966 -1054.4882285100764 914.93494295554228 1510.8253534293076 -943.09987356846523 -608.95510450090683
leaf_weight=334 861 217 952 170 325 115 312 167 180 168 399 2544 1448 2334 3778 1368 1472 469 121 171 1350 341 812 156 1012 375 601 239 973 686
leaf_count=334 861 217 952 170 325 115 312 167 180 168 399 2544 1448 2334 3778 1368 1472 469 121 171 1350 341 812 156 1012 375 601 239 973 686
internal_value=0 -307.86 620.914 -87.878 -593.489 328.139 -285.499 154.464 849.417 489.495 -475.441 -414.784 972.503 310.247 -410.751 -20.8729 -84.1922 817.063 578.442 -36.467 340.558 -855.852 48.9089 167.705 697.716 -843.535 807.086 1213.81 -991.101 -640.972
internal_weight=0 16322 8128 9228 7094 3551 5085 4143 4577 2453 4877 3405 3108 2501 4177 1680 1642 1917 1469 1098 1684 2217 983 336 1133 700 769 1191 1314 903
internal_count=24450 16322 8128 9228 7094 3551 5085 4143 4577 2453 4877 3405 3108 2501 4177 1680 1642 1917 1469 1098 1684 2217 983 336 1133 700 769 1191 1314 903
cat_boundaries=0 1 2 3 4 5 6 7 8 9 10 11 12 13 14 15 16 17 18 19 20
cat_threshold=655360 265561 205 4585 306 205 4585 128 4 27346 18432 27650 18432 3 4 8289 17 114722 32 69
is_linear=0
shrinkage=0.05


Tree=28
num_leaves=31
num_cat=22
split_feature=0 5 0 5 3 0 2 5 1 3 2 2 2 0 5 3 0 2 5 1 1 3 2 2 5 2 0 5 5 2
split_gain=1.70793e+12 2.53265e+11 2.12957e+11 1.41968e+11 1.14385e+11 1.12279e+11 6.48488e+10 5.5031e+10 5.34072e+10 4.72421e+10 4.52381e+10 4.29278e+10 3.76239e+10 3.58621e+10 3.386e+10 3.02697e+10 3.00144e+10 2.93407e+10 2.90522e+10 2.57851e+10 2.38459e+10 2.37306e+10 1.96108e+10 1.74363e+10 1.0069e+10 1.00624e+10 8.94974e+09 5.90906e+09 3.88124e+09 1.98987e+09
threshold=0 8.5000000000000018 1 11.500000000000002 2 3 4 3.5000000000000004 5 6 7 8 9 10 5.5000000000000009 11 12 13 1.5000000000000002 14 15 16 17 18 15.500000000000002 19 20 15.500000000000002 1.5000000000000002 21
decision_type=1 2 1 2 9 1 1 2 1 9 1 1 1 1 2 9 1 1 2 1 1 9 1 1 2 1 1 2 2 1
left_child=1 4 14 6 12 8 20 19 15 16 -9 -11 26 -8 28 -3 -5 -10 -14 -6 -4 27 -23 24 -16 -25 -1 -7 -2 -30
right_child=2 5 3 9 7 21 13 10 17 11 -12 -13 18 -15 23 -17 -18 -19 -20 -21 -22 22 -24 25 -26 -27 -28 -29 29 -31
leaf_value=1069.9771840618012 -1067.6373561084081 662.79336565382346 -777.4346291646209 -92.091161850892789 -572.93329627214086 652.57863962990905 69.134116300523587 -700.38910571382257 740.91073061111979 778.75101429530559 259.29948648558911 -120.8747582403943 -200.7979042710929 -322.10365507545725 -875.65911502309177 -22.630900814658716 721.34736055773362 1086.0712296773127 492.20012160543757 -66.925346591985118 -463.38564357476457 502.12214006181568 129.12307070441869 44.259574346127721 -466.31915687771902 -487.96894905352832 430.86274038461545 1195.0136280101735 -975.99539091552742 -714.5866587012456
leaf_weight=366 315 534 869 173 324 112 762 121 1328 130 2218 2550 174 2543 613 237 334 1773 1156 1060 2704 591 910 105 199 891 120 91 615 532
leaf_count=366 315 534 869 173 324 112 762 121 1328 130 2218 2550 174 2543 613 237 334 1773 1156 1060 2704 591 910 105 199 891 120 91 615 532
internal_value=0 458.476 -380.43 -265.913 219.42 696.768 -394.003 59.7371 845.64 9.68829 207.768 -74.5034 543.466 -231.964 -731.023 454.507 447.371 941.113 398.541 -190.007 -541.723 351.461 278.338 -588.577 -765.908 -431.978 924.039 853.686 -912.181 -869.488
internal_weight=0 11115 13335 10065 5539 5576 6878 3723 3872 3187 2339 2680 1816 3305 3270 771 507 3101 1330 1384 3573 1704 1501 1808 812 996 486 203 1462 1147
internal_count=24450 11115 13335 10065 5539 5576 6878 3723 3872 3187 2339 2680 1816 3305 3270 771 507 3101 1330 1384 3573 1704 1501 1808 812 996 486 203 1462 1147
cat_boundaries=0 1 2 3 4 5 6 7 8 9 10 11 12 13 14 15 16 17 18 19 20 21 22
cat_threshold=655641 17028 196 524288 481 4 68 33 16386 2578 262144 236 8256 289 4 4 4 19614 801 18432 524288 896
is_linear=0
shrinkage=0.05


Tree=29
num_leaves=31
num_cat=22
split_feature=0 0 5 5 2 3 5 3 2 1 1 0 2 2 4 2 2 2 5 3 4 0 3 5 5 3 5 1 4 5
split_gain=1.54391e+12 3.21368e+11 1.82499e+11 1.38521e+11 9.14176e+10 8.75682e+10 7.55357e+10 7.43445e+10 6.38391e+10 5.46999e+10 4.98306e+10 4.58297e+10 3.79505e+10 3.54704e+10 3.39655e+10 2.83813e+10 2.80981e+10 2.38533e+10 2.13388e+10 2.02885e+10 1.65894e+10 1.52435e+10 1.27737e+10 1.03816e+10 1.3542e+10 9.46925e+09 8.67449e+09 8.57994e+09 5.23707e+09 4.74496e+09
threshold=0 1 4.5000000000000009 5.5000000000000009 2 3 12.500000000000002 4 5 6 7 8 9 10 11 12 13 14 4.5000000000000009 15 16 17 18 13.500000000000002 7.5000000000000009 19 1.0000000180025095e-35 20 21 28.500000000000004
decision_type=1 1 2 2 1 9 2 9 1 1 1 1 1 1 9 1 1 1 2 9 9 1 9 2 2 9 2 1 9 2
left_child=2 3 9 14 23 8 11 15 -5 26 -9 22 -7 25 27 -6 -16 21 -13 -15 -19 -8 -3 24 -4 -11 -1 -2 -28 -25
right_child=1 6 4 5 7 12 17 10 -10 13 -12 18 -14 19 16 -17 -18 20 -20 -21 -22 -23 -24 29 -26 -27 28 -29 -30 -31
leaf_value=-1117.2525025807895 -494.78422331660408 -681.40940055139561 1663.303094250643 489.51332607723975 28.851846255678119 84.889055969050403 647.34764300755103 57.165380602210803 -173.20037244043306 904.80511437281007 550.47091212627197 -693.7437522994768 494.96198175399087 482.44677118154669 6.4993645503507027 846.84067755192018 -385.32090557985106 -206.08186168536872 -459.31834072606017 18.732864673084897 -588.02981255401471 -124.53030148645877 -1068.3103274928503 1618.5516280877787 881.92058972184373 317.51237048160885 -146.8220222856356 -893.07694140277988 -566.2008703204948 817.46705917358395
leaf_weight=39 500 583 79 399 122 1127 102 659 3286 223 2505 1539 1151 302 674 2617 1457 988 2629 984 416 147 690 244 186 152 209 289 132 20
leaf_count=39 500 583 79 399 122 1127 102 659 3286 223 2505 1539 1151 302 674 2617 1457 988 2629 984 416 147 690 244 186 152 209 289 132 20
internal_value=0 -288.36 546.166 -87.6732 677.527 50.3961 -539.18 617.476 -100.313 134.872 448.229 -629.868 293.343 258.169 -369.928 810.643 -261.943 -243.931 -544.571 130.512 -322.61 204.447 -897.812 1311.16 1114.86 681.186 -400.327 -650.025 -330.072 1557.86
internal_weight=0 15977 8473 8883 6432 5963 7094 5903 3685 2041 3164 5441 2278 1661 2920 2739 2131 1653 4168 1286 1404 249 1273 529 265 375 380 789 341 264
internal_count=24450 15977 8473 8883 6432 5963 7094 5903 3685 2041 3164 5441 2278 1661 2920 2739 2131 1653 4168 1286 1404 249 1273 529 265 375 380 789 341 264
cat_boundaries=0 1 2 3 4 5 6 7 8 9 10 11 12 13 14 15 16 17 18 19 20 21 22
cat_threshold=655616 265305 18434 314 197 19458 4 4 128 1513 8210 1 9 19998 26758 4 6 81954 197 197 3 6
is_linear=0
shrinkage=0.05


Tree=30
num_leaves=31
num_cat=22
split_feature=0 5 0 5 3 0 3 3 1 2 5 2 2 2 5 3 2 5 3 1 3 1 0 2 2 5 2 5 2 5
split_gain=1.40637e+12 2.15228e+11 1.76489e+11 1.14428e+11 9.60808e+10 9.09158e+10 6.10164e+10 4.99429e+10 4.54913e+10 4.42595e+10 3.80546e+10 3.72177e+10 3.71709e+10 3.21853e+10 2.99532e+10 2.75545e+10 2.72781e+10 2.4981e+10 2.05108e+10 2.03018e+10 2.66463e+10 1.70418e+10 1.27397e+10 1.19728e+10 9.50577e+09 8.66962e+09 6.06171e+09 5.97995e+09 5.94871e+09 5.79425e+09
threshold=0 8.5000000000000018 1 12.500000000000002 2 3 4 5 6 7 7.5000000000000009 8 9 10 5.5000000000000009 11 12 1.5000000000000002 13 14 15 16 17 18 19 7.5000000000000009 20 15.500000000000002 21 2.5000000000000004
decision_type=1 2 1 2 9 1 9 9 1 1 2 1 1 1 2 9 1 2 9 1 9 1 1 1 1 2 1 2 1 2
left_child=1 4 10 6 13 8 14 9 15 -6 24 18 -8 25 -4 -3 -10 -15 -5 26 -21 -9 -13 27 -2 -1 -7 -12 -25 -26
right_child=2 5 3 11 7 19 12 21 16 -11 23 22 -14 17 -16 -17 -18 -19 -20 20 -22 -23 -24 28 29 -27 -28 -29 -30 -31
leaf_value=773.58585766409908 -878.36964097832265 607.67847602121981 -310.48074499568304 -217.65952831771503 1033.0898717922635 -178.71949062253455 -30.697026924826886 -652.28493378262556 1170.6199305750645 104.16541036246231 -686.95405317105747 118.12703299284775 -475.5188286875798 -197.02911693529154 92.792883162010014 -44.425793654715967 770.81735924544273 445.58091323515947 109.03259354507368 812.6132276658451 283.10951364340906 -144.41813042597337 571.64800650676091 -7.511817014539564 -798.43874069831281 1368.0447498904334 189.54836548341805 -406.32120096130649 -374.41182640192784 -548.37830480338846
leaf_weight=414 1139 534 836 949 125 193 540 228 647 2764 608 291 4320 174 1025 237 2454 1156 955 330 942 606 374 138 346 72 239 276 837 701
leaf_count=414 1139 534 836 949 125 193 540 228 647 2764 608 291 4320 174 1025 237 2454 1156 955 330 942 606 374 138 346 72 239 276 837 701
internal_value=0 416.046 -345.204 -224.6 195.665 635.71 -333.333 49.3481 769.705 147.783 -620.955 58.9918 -426.259 492.646 -87.8937 409.224 857.728 358.812 -54.0852 324.811 425.748 -289.343 377.88 -456.187 -763.916 844.282 24.7002 -592.632 -323.085 -625.045
internal_weight=0 11115 13335 9290 5539 5576 6721 3723 3872 2889 4045 2569 4860 1816 1861 771 3101 1330 1904 1704 1272 834 665 1859 2186 486 432 884 975 1047
internal_count=24450 11115 13335 9290 5539 5576 6721 3723 3872 2889 4045 2569 4860 1816 1861 771 3101 1330 1904 1704 1272 834 665 1859 2186 486 432 884 975 1047
cat_boundaries=0 1 2 3 4 5 6 7 8 9 10 11 12 13 14 15 16 17 18 19 20 21 22
cat_threshold=655641 49796 196 524288 69 41 4 18434 507 19470 2578 236 27788 434 4 5 4 73794 481 897 288 18434
is_linear=0
shrinkage=0.05


Tree=31
num_leaves=31
num_cat=23
split_feature=0 0 5 5 5 3 2 2 3 3 0 2 1 5 3 0 1 5 4 2 3 3 2 5 2 2 3 2 5 1
split_gain=1.27568e+12 2.83961e+11 1.4673e+11 1.14009e+11 1.01469e+11 6.21003e+10 5.83562e+10 5.43979e+10 4.9633e+10 4.58827e+10 3.71225e+10 3.7048e+10 3.42617e+10 4.16094e+10 3.42066e+10 2.70146e+10 2.62165e+10 1.87344e+10 1.86763e+10 2.50955e+10 1.86287e+10 1.25282e+10 1.13257e+10 1.02636e+10 9.98256e+09 9.43899e+09 7.60049e+09 7.21003e+09 4.51287e+09 9.52822e+08
threshold=0 1 7.5000000000000009 3.5000000000000004 5.5000000000000009 2 3 4 5 6 7 8 9 3.5000000000000004 10 11 12 1.5000000000000002 13 14 15 16 17 25.500000000000004 18 19 20 21 6.5000000000000009 22
decision_type=1 1 2 2 2 9 1 1 9 9 1 1 1 2 9 1 1 2 9 1 9 9 1 2 1 1 9 1 2 1
left_child=2 3 5 17 10 12 26 14 23 -8 22 16 20 -14 -6 -9 -10 29 28 -20 -1 -13 -3 27 -12 -19 -5 -4 -7 -2
right_child=1 4 8 6 7 18 9 15 11 -11 24 21 13 -15 -16 -17 -18 25 19 -21 -22 -23 -24 -25 -26 -27 -28 -29 -30 -31
leaf_value=1049.092456711003 -421.02883572160158 -90.603251348979896 1185.5658532566047 369.9296421987969 70.218713171354537 650.17743298015773 516.40747490114381 -843.25507613014088 602.27078259062034 12.082334441163354 -860.09768963137492 981.33957534554509 46.017425922083568 512.26383277049115 -271.89887766205595 -370.47445064172086 226.13183260596031 -25.545473320399353 -275.81143169911348 296.20040452697066 359.02426773951606 592.07860833661005 -475.072267746112 1676.2073712777401 -610.12339734516775 -412.93003344782795 830.78286768421788 696.2001412898303 -58.889982822963169 -823.35282888183599
leaf_weight=295 104 242 434 218 1261 113 505 342 1876 3647 1159 820 830 1130 1724 3256 669 243 703 254 198 463 1485 69 1121 492 283 246 28 240
leaf_count=295 104 242 434 218 1261 113 505 342 1876 3647 1159 820 830 1130 1724 3256 669 243 703 254 198 463 1485 69 1121 492 283 246 28 240
internal_value=0 -253.936 512.329 29.6602 -407.32 271.773 137.094 -286.954 700.08 74.5158 -606.082 621.155 410.76 313.225 -127.621 -417.626 504.668 -433.354 -42.0898 -122.499 784.593 846.531 -422.029 1080.73 -740.395 -290.822 641.416 1036.2 475.637 -737.894
internal_weight=0 16322 8128 5732 10590 3551 4653 6583 4577 4152 4007 3828 2453 1960 2985 3598 2545 1079 1098 957 493 1283 1727 749 2280 735 501 680 141 344
internal_count=24450 16322 8128 5732 10590 3551 4653 6583 4577 4152 4007 3828 2453 1960 2985 3598 2545 1079 1098 957 493 1283 1727 749 2280 735 501 680 141 344
cat_boundaries=0 1 2 3 4 5 6 7 8 9 10 11 12 13 14 15 16 17 18 19 20 21 22 23
cat_threshold=655360 264473 205 18946 31766 4 4 65634 4525 10 197 128 3 4 12705 12 201 11334 897 4120 178 6562 10
is_linear=0
shrinkage=0.05


Tree=32
num_leaves=31
num_cat=21
split_feature=0 0 5 5 5 2 1 3 3 2 2 3 0 2 5 3 2 3 5 2 3 1 1 2 5 5 2 2 5 5
split_gain=1.15274e+12 2.57176e+11 1.32597e+11 1.24236e+11 5.82683e+10 5.68158e+10 5.35706e+10 4.7605e+10 4.49941e+10 4.13204e+10 3.98274e+10 3.90988e+10 3.61758e+10 3.41828e+10 3.31475e+10 3.2557e+10 1.97285e+10 1.83131e+10 1.61415e+10 1.304e+10 1.14586e+10 1.13444e+10 1.11278e+10 1.02405e+10 9.22082e+09 7.77746e+09 7.39441e+09 6.48438e+09 6.16629e+09 2.68395e+09
threshold=0 1 7.5000000000000009 9.5000000000000018 12.500000000000002 2 3 4 5 6 7 8 9 10 2.5000000000000004 11 12 13 2.5000000000000004 14 15 16 17 18 25.500000000000004 6.5000000000000009 19 20 5.5000000000000009 12.500000000000002
decision_type=1 1 2 2 2 1 1 9 9 1 1 9 1 1 2 9 1 9 2 1 9 1 1 1 2 2 1 1 2 2
left_child=2 3 5 6 12 17 19 22 24 -9 28 -8 20 29 -12 -15 26 25 -14 -2 -3 -18 -5 -19 27 -1 -6 -4 -7 -10
right_child=1 4 8 7 16 10 11 9 13 -11 14 -13 18 15 -16 -17 21 23 -20 -21 -22 -23 -24 -25 -26 -27 -28 -29 -30 -31
leaf_value=739.02891804864521 -632.61340555823926 -585.51985836511528 1127.6226531891136 -571.48405091256814 301.85067030962779 -414.97587859080386 3.0938917773078258 789.28448849530287 -314.72639419262231 157.51508692524422 -102.04154400887607 -311.37032443100514 -680.25947350121794 259.63641229680155 311.12079646622436 692.02928633654244 -115.53212185001854 789.50711717276738 -426.07754269395195 -197.16057127600843 -942.76323419897892 -466.19434565042985 -115.44404370010025 237.7719705937983 1592.3970106041952 1319.9865069261239 -84.37667506022224 662.74991148784761 -1091.2334664278253 73.62495510831792
leaf_weight=411 867 583 434 188 160 156 2101 274 65 3214 691 1864 765 555 1632 3067 388 106 3403 253 690 657 467 445 69 67 448 246 43 141
leaf_count=411 867 583 434 188 160 156 2101 274 65 3214 691 1864 765 555 1632 3067 388 106 3403 253 690 657 467 445 69 67 448 246 43 141
internal_value=0 -241.343 487.064 -67.0997 -467.589 258.386 -232.769 136.076 665.544 209.258 128.586 -145.151 -547.232 590.41 187.415 626.671 -208.266 569.73 -471.599 -536.863 -784.994 -338.326 -252.963 356.095 1027.94 803.648 20.5018 985.777 -534.255 -46.6486
internal_weight=0 16322 8128 9228 7094 3551 5085 4143 4577 3488 2522 3965 5441 3828 2323 3622 1653 1029 4168 1120 1273 1045 655 551 749 478 608 680 199 206
internal_count=24450 16322 8128 9228 7094 3551 5085 4143 4577 3488 2522 3965 5441 3828 2323 3622 1653 1029 4168 1120 1273 1045 655 551 749 478 608 680 199 206
cat_boundaries=0 1 2 3 4 5 6 7 8 9 10 11 12 13 14 15 16 17 18 19 20 21
cat_threshold=655360 265561 28182 4 274 4 18432 33 77 128 33 274 26774 69 432 197 2 4 18438 24706 6562
is_linear=0
shrinkage=0.05


Tree=33
num_leaves=31
num_cat=23
split_feature=0 5 0 5 3 2 1 4 2 3 2 0 2 3 5 0 3 2 1 5 1 5 3 2 0 0 2 3 5 5
split_gain=1.05027e+12 1.67003e+11 1.36886e+11 9.52787e+10 9.14213e+10 7.35328e+10 6.35317e+10 5.04967e+10 4.94116e+10 3.71493e+10 3.56363e+10 3.56244e+10 3.33596e+10 2.74225e+10 2.72747e+10 2.64813e+10 2.57913e+10 2.04512e+10 1.85539e+10 1.61957e+10 1.49916e+10 1.38056e+10 1.18017e+10 1.11952e+10 7.83874e+09 6.78864e+09 6.12662e+09 4.22384e+09 2.07627e+09 3.38945e+09
threshold=0 10.500000000000002 1 11.500000000000002 2 3 4 5 6 7 8 9 10 11 2.5000000000000004 12 13 14 15 10.500000000000002 16 18.500000000000004 17 18 19 20 21 22 15.500000000000002 10.500000000000002
decision_type=1 2 1 2 9 1 1 9 1 9 1 1 1 9 2 1 9 1 1 2 1 2 9 1 1 1 1 9 2 2
left_child=1 4 17 8 20 11 16 -7 18 15 13 -6 -11 -8 -10 -5 24 28 -4 26 27 -18 -21 -22 -3 -12 -19 -1 29 -2
right_child=2 6 3 9 5 7 10 -9 14 12 25 -13 -14 -15 -16 -17 21 19 -20 22 23 -23 -24 -25 -26 -27 -28 -29 -30 -31
leaf_value=-307.95950540815079 207.73258807328011 134.09490788125584 -646.74775209394329 -98.267579650878915 723.13857311187644 244.73044179284159 1004.3126362951178 -216.05771854095039 -497.20572193914387 696.67872711181644 1167.9226794418487 206.79765421186175 -96.256454471959728 541.16280682724221 -107.54002740910099 664.63688857194995 -234.14417456466788 -788.30608381220657 -371.61765055565513 -233.96066202839216 -566.85097977956138 250.10651502549274 -632.78268062286804 -35.46200375305979 683.65482339513937 646.95861942659178 -581.88771631846464 -809.25458697555666 437.34742825415827 -429.56144624597886
leaf_weight=130 54 107 869 173 1113 3397 408 714 536 130 495 515 2550 2332 2769 334 274 968 2704 470 110 318 353 598 294 187 1360 123 31 34
leaf_count=130 54 107 869 173 1113 3397 408 714 536 130 495 515 2550 2332 2769 334 274 968 2704 470 110 318 353 598 294 187 1360 123 31 34
internal_value=0 359.645 -298.205 -206.409 202.641 277.966 598.722 164.37 -311.332 19.3821 700.6 562.059 -55.3463 613.529 -170.22 407.451 238.184 -579.262 -440.151 -604.287 -247.506 25.5455 -415.554 -124.767 543.845 1036.49 -673.604 -573.176 78.8391 -38.4947
internal_weight=0 11115 13335 10065 6700 5739 4415 4111 6878 3187 3422 1628 2680 2740 3305 507 993 3270 3573 3151 961 592 823 708 401 682 2328 253 119 88
internal_count=24450 11115 13335 10065 6700 5739 4415 4111 6878 3187 3422 1628 2680 2740 3305 507 993 3270 3573 3151 961 592 823 708 401 682 2328 253 119 88
cat_boundaries=0 1 2 3 4 5 6 7 8 9 10 11 12 13 14 15 16 17 18 19 20 21 22 23
cat_threshold=655641 17028 274 18966 4 6 481 68 13169 524288 16386 4 8256 164 18432 4 4 141 8357 131081 524288 769 2
is_linear=0
shrinkage=0.05


Tree=34
num_leaves=31
num_cat=22
split_feature=0 0 5 5 0 2 3 3 2 1 2 2 3 5 4 2 2 5 3 5 3 5 2 3 2 3 2 5 5 1
split_gain=9.53829e+11 2.17802e+11 1.11723e+11 9.42259e+10 7.92731e+10 6.59449e+10 6.37168e+10 5.67599e+10 5.19144e+10 4.36614e+10 4.27333e+10 4.02641e+10 3.47197e+10 2.89481e+10 2.74702e+10 2.37045e+10 2.02311e+10 1.63851e+10 1.31625e+10 2.65753e+10 1.24833e+10 1.10127e+10 1.01539e+10 9.67549e+09 8.70722e+09 8.24816e+09 4.01897e+09 2.79896e+09 2.76331e+09 9.49644e+08
threshold=0 1 3.5000000000000004 3.5000000000000004 2 3 4 5 6 7 8 9 10 5.5000000000000009 11 12 13 1.5000000000000002 14 12.500000000000002 15 9.5000000000000018 16 17 18 19 20 6.5000000000000009 1.5000000000000002 21
decision_type=1 1 2 2 1 1 9 9 1 1 1 1 9 2 9 1 1 2 9 2 9 2 1 9 1 9 1 2 2 1
left_child=2 3 9 17 21 18 14 10 16 20 -6 -8 -10 -9 -7 23 -5 29 27 -20 -1 26 -17 -11 -23 -19 -3 -4 -22 -2
right_child=1 4 5 8 7 6 11 13 12 15 -12 -13 -14 -15 -16 22 -18 25 19 -21 28 24 -24 -25 -26 -27 -28 -29 -30 -31
leaf_value=1029.3044311460901 -381.84809329384257 -289.00910223284336 1768.7150485476934 849.27163519064584 102.54024633620973 694.67375986485638 -415.86252253272318 -331.81440563767643 244.31671634793517 -115.73507493117762 -419.35910382728792 369.98095294232888 -111.94828683361087 4.603951405949597 -10.265148435650451 -78.469853137963582 288.55403060980626 -632.64538425869421 71.541251032403167 1204.9046071724269 5.1299202552208536 -183.43325488221413 -431.60971304086547 456.98834765712911 -588.53565101813319 -175.6376056362601 -712.36630836935603 1305.6040210696235 452.25622099348641 -757.24029841461186
leaf_weight=112 104 107 37 182 428 2705 166 944 1012 106 4989 3073 2057 1982 155 586 1402 116 94 115 52 245 315 233 392 619 1503 276 103 240
leaf_count=112 104 107 37 182 428 2705 166 944 1012 106 4989 3073 2057 1982 155 586 1402 116 94 115 52 245 315 233 392 619 1503 276 103 240
internal_value=0 -219.495 443.093 28.8685 -353.827 532.077 483.19 -282.003 126.541 55.0803 -378.011 328.55 5.94173 -103.579 656.566 -71.5346 357.904 -392.058 1073.46 663.42 622.47 -618.073 -205.314 279.722 -444.846 -258.761 -690.45 1318.23 283.934 -676.863
internal_weight=0 16322 8128 5732 10590 6621 6099 8343 4653 1507 5417 3239 3069 2926 2860 1240 1584 1079 522 209 267 2247 901 339 637 735 1610 313 155 344
internal_count=24450 16322 8128 5732 10590 6621 6099 8343 4653 1507 5417 3239 3069 2926 2860 1240 1584 1079 522 209 267 2247 901 339 637 735 1610 313 155 344
cat_boundaries=0 1 2 3 4 5 6 7 8 9 10 11 12 13 14 15 16 17 18 19 20 21 22
cat_threshold=655360 264473 132 18434 197 314 18966 10 18438 33 12 14 658 16386 44 5 8512 344 19600 18 18446 10
is_linear=0
shrinkage=0.05


Tree=35
num_leaves=31
num_cat=23
split_feature=0 0 5 5 3 3 1 2 5 2 3 3 5 2 0 1 1 4 4 3 5 2 2 2 0 3 5 2 0 5
split_gain=8.61314e+11 1.96834e+11 1.03547e+11 9.97692e+10 4.94936e+10 4.81737e+10 4.62128e+10 4.46492e+10 4.19009e+10 3.73672e+10 3.6824e+10 3.21332e+10 3.12864e+10 2.67578e+10 2.54837e+10 2.33993e+10 2.21047e+10 2.1676e+10 2.07987e+10 1.95633e+10 1.55418e+10 1.36336e+10 1.33138e+10 1.15799e+10 1.12965e+10 1.08109e+10 9.36352e+09 8.71403e+09 7.84249e+09 6.89925e+09
threshold=0 1 7.5000000000000009 9.5000000000000018 2 3 4 5 12.500000000000002 6 7 8 1.0000000180025095e-35 9 10 11 12 13 14 15 3.5000000000000004 16 17 18 19 20 5.5000000000000009 21 22 3.5000000000000004
decision_type=1 1 2 2 9 9 1 1 2 1 9 9 2 1 1 1 1 9 9 9 2 1 1 1 1 9 2 1 1 2
left_child=2 3 4 6 15 21 24 26 14 -7 13 -8 -9 27 25 29 19 -15 23 -12 -17 -5 -16 -10 -2 -3 -6 -4 -20 -1
right_child=1 8 10 5 7 9 11 12 18 -11 16 -13 -14 17 22 20 -18 -19 28 -21 -22 -23 -24 -25 -26 -27 -28 -29 -30 -31
leaf_value=1413.1317824707032 37.655809974670412 -495.02934917752305 757.64956082537401 853.64170754394536 -595.75316279896515 564.50068973900704 -275.76050843126836 -627.96803543841258 138.23575210344765 6.8270193009857607 368.48336591067238 4.7894833698014727 193.84375699417558 658.85331114520318 -141.02083971753098 143.66434411197008 736.41370914352615 265.65089275338954 -55.625823336514557 -121.60783396328198 587.84143689144355 291.66648054911678 -449.50539584902958 -192.28197531422751 -531.48795316239034 -831.48772618716112 -1647.265943321815 1149.1872805231685 -591.86042494247056 818.10067939758301
leaf_weight=75 102 583 868 240 114 319 1923 122 411 3469 895 2171 2283 1386 424 367 312 531 100 262 425 256 3500 712 1079 690 26 323 343 139
leaf_count=75 102 583 868 240 114 319 1923 122 411 3469 895 2171 2283 1386 424 367 312 531 100 262 425 256 3500 712 1079 690 26 323 343 139
internal_value=0 -208.605 421.03 -62.3583 218.937 116.822 -207.995 99.8781 -414.918 55.1532 578.741 -127.339 151.525 677.156 -483.849 514.034 363.438 551.882 -188.81 257.412 377.254 575.086 -416.616 -71.1653 -482.429 -682.458 -738.299 872.519 -474.714 980.807
internal_weight=0 16322 8128 9559 3551 4284 5275 2545 6763 3788 4577 4094 2405 3108 5197 1006 1469 1917 1566 1157 792 496 3924 1123 1181 1273 140 1191 443 214
internal_count=24450 16322 8128 9559 3551 4284 5275 2545 6763 3788 4577 4094 2405 3108 5197 1006 1469 1917 1566 1157 792 496 3924 1123 1181 1273 140 1191 443 214
cat_boundaries=0 1 2 3 4 5 6 7 8 9 10 11 12 13 14 15 16 17 18 19 20 21 22 23
cat_threshold=655360 265563 68 4 4 33 18432 205 434 27346 128 10 5 6 6 34 14384 19470 18578 17 197 720 160
is_linear=0
shrinkage=0.05


Tree=36
num_leaves=31
num_cat=21
split_feature=0 0 5 5 5 2 3 2 0 2 2 3 1 3 1 1 0 1 0 5 3 5 3 2 2 5 3 5 5 5
split_gain=7.86482e+11 1.76891e+11 9.33482e+10 8.13417e+10 7.18132e+10 6.26629e+10 4.86413e+10 4.69026e+10 4.34128e+10 3.82512e+10 3.464e+10 3.29082e+10 2.2728e+10 2.18928e+10 2.18165e+10 2.14425e+10 1.92087e+10 1.84831e+10 1.53651e+10 1.40011e+10 1.37063e+10 1.35719e+10 1.09207e+10 8.89525e+09 6.07235e+09 5.75082e+09 4.44947e+09 4.24563e+09 3.48186e+09 2.6762e+09
threshold=0 1 10.500000000000002 3.5000000000000004 12.500000000000002 2 3 4 5 6 7 8 9 10 11 12 13 14 15 1.5000000000000002 16 13.500000000000002 17 18 19 21.500000000000004 20 19.500000000000004 24.500000000000004 4.5000000000000009
decision_type=1 1 2 2 2 1 9 1 1 1 1 9 1 9 1 1 1 1 1 2 9 2 9 1 1 2 9 2 2 2
left_child=1 2 5 19 8 20 -7 13 24 12 25 18 -4 -5 16 -9 -12 -13 -10 -3 -1 -11 -16 -21 29 27 -26 -6 -27 -2
right_child=4 3 9 7 10 6 -8 15 11 21 14 17 -14 -15 22 -17 -18 -19 -20 23 -22 -23 -24 -25 26 28 -28 -29 -30 -31
leaf_value=43.540645965328061 -508.17683308919271 -602.37089361873541 583.84654585074486 614.32464418390566 431.47079404114157 307.95318113096801 -76.537347412437228 -273.00238910110141 22.911036004440437 558.34092188028194 -591.37898077249531 -259.01193190014965 175.8867148956796 221.06689818965663 -435.33138307574291 69.506514867965578 76.013047560819345 -470.52830595672333 -280.65870988892209 22.387301723664578 657.73596425925575 971.44143488641339 -138.15901076262631 -343.41887787555964 -505.35735529044916 1228.7801917567399 -711.52307464176181 -200.42742500305178 517.74358758793937 -0.54768903395708868
leaf_weight=113 42 352 1487 451 157 2231 1299 591 829 260 110 1757 481 1762 652 1897 1052 2914 833 259 1005 845 641 476 786 33 999 32 36 68
leaf_count=113 42 352 1487 451 157 2231 1299 591 829 260 110 1757 481 1762 652 1897 1052 2914 833 259 1005 845 641 476 786 33 999 32 36 68
internal_value=0 255.922 412.535 46.6531 -314.154 271.707 166.649 136.866 -387.998 626.884 -91.3582 -323.328 485.53 303.614 -149.44 -12.6203 8.32797 -391.69 -130.008 -343.067 596.594 866.401 -290.2 -218.884 -599.25 449.686 -624.062 324.483 857.805 -178.172
